%YAML:1.0
---
opencv_ml_svm:
   format: 3
   svmType: C_SVC
   kernel:
      type: LINEAR
   C: 2.6699999999999999e+00
   term_criteria: { epsilon:1.1920928955078125e-07, iterations:1000 }
   var_count: 3780
   class_count: 2
   class_labels: !!opencv-matrix
      rows: 2
      cols: 1
      dt: i
      data: [ -1, 1 ]
   sv_total: 1
   support_vectors:
      - [ 0., 0., 0., 0., 0., 0., 0., 0., 0., 0., 0., 0., 0., 0., 0., 0.,
          0., 0., 0., 0., 0., 0., 0., 0., 0., 0., 0., 0., 0., 0., 0., 0.,
          0., 0., 0., 0., 4.90799175e-05, 1.39325839e-05, 2.79039214e-05,
          4.81702991e-05, 9.35721735e-04, 1.10654355e-05, 2.77836662e-05,
          3.50982773e-05, 1.24117714e-05, 7.36198737e-04, 3.70661030e-04,
          9.98289790e-04, 2.25622184e-03, 3.51297739e-03, 2.97657214e-03,
          3.08767217e-03, 1.21970277e-03, 2.66218907e-04, 1.77663537e-06,
          2.79245214e-05, 5.72466488e-05, 5.16397413e-05, 9.78215947e-04,
          4.15071045e-05, 1.04438237e-04, 1.11198824e-05, 0.,
          3.18036618e-04, 5.87456219e-04, 1.49423245e-03, 2.17393809e-03,
          3.51297739e-03, 3.11504886e-03, 3.51297739e-03, 1.62098964e-03,
          6.52910443e-04, 2.72314704e-04, 2.74395075e-04, 1.14669127e-03,
          1.91217789e-03, 3.06497514e-03, 2.23810249e-03, 2.49473518e-03,
          9.61671467e-04, 2.26604388e-04, 2.44835205e-03, 1.06149539e-03,
          3.96789704e-03, 3.53059778e-03, 2.35821232e-02, 1.96722872e-03,
          3.12725268e-03, 1.63973460e-03, 8.70128570e-04, 3.50591348e-04,
          4.28148691e-04, 1.55544246e-03, 1.70035090e-03, 2.95253983e-03,
          2.25925189e-03, 2.43296567e-03, 1.25435693e-03, 4.82183852e-04,
          8.66529008e-04, 8.63534166e-04, 2.05733418e-03, 3.88815347e-03,
          2.35821232e-02, 2.98264017e-03, 2.58486485e-03, 1.36546651e-03,
          9.81476973e-04, 5.97368646e-03, 2.89292121e-03, 4.21020389e-03,
          3.68771493e-03, 1.60642304e-02, 1.91573123e-03, 2.80918530e-03,
          1.70581520e-03, 2.46853405e-03, 1.27352560e-02, 9.53793433e-03,
          8.84323753e-03, 1.37739144e-02, -3.28119621e-02,
          8.01553577e-03, 1.95469297e-02, 5.25938068e-03, 2.19823793e-02,
          4.39015171e-03, 3.82542214e-03, 3.37660406e-03, 4.94362088e-03,
          2.67320499e-02, 2.73059146e-03, 2.38063326e-03, 2.85864458e-03,
          5.13733784e-03, 3.41762304e-02, 2.53879745e-02, 1.85372178e-02,
          2.17253938e-02, -3.58150825e-02, 1.01500051e-02,
          8.17245897e-03, 8.19100812e-03, 2.95743849e-02, 1.50099611e-02,
          1.98102067e-03, -7.87838013e-04, -6.41026255e-03,
          -1.72141474e-02, 3.56684253e-03, 1.32107483e-02,
          5.57170762e-03, 2.24775802e-02, 1.23233339e-02,
          -9.83222481e-03, -1.85637381e-02, -2.13693697e-02,
          -2.88385358e-02, -1.56603110e-05, 7.51162833e-03,
          1.66862877e-03, 1.04181105e-02, 3.02597973e-02, 1.16645712e-02,
          7.59228133e-03, 3.94770736e-03, -1.86211839e-02,
          6.50769239e-03, 4.15489962e-03, 4.85130493e-03, 2.44939215e-02,
          1.66580733e-02, -3.38217150e-03, -1.06050372e-02,
          -2.86858319e-03, -2.46093832e-02, 1.15134735e-02,
          1.90870371e-03, 9.28338803e-03, 2.07772609e-02, 1.33537417e-02,
          -3.76441237e-03, -1.30339125e-02, -7.35856825e-03,
          -1.01455227e-02, 3.67186661e-03, 1.82108866e-04,
          6.39828737e-04, 8.81175511e-03, 3.83449788e-03,
          -3.99381947e-03, -1.41974855e-02, -2.53166049e-03,
          -1.74503289e-02, -2.78679538e-03, -1.17595783e-02,
          -1.81602058e-03, 2.18854635e-03, 1.73396394e-02,
          3.79013317e-03, -1.34219695e-02, 4.45117056e-03,
          -3.63524351e-03, 5.64307440e-03, 5.40039130e-03,
          1.47256106e-02, 1.83874574e-02, 1.08219860e-02, 2.35590246e-03,
          -1.92954894e-02, -9.69734043e-03, -3.07351779e-02,
          -8.85430258e-03, 5.65497810e-03, 9.59602185e-03,
          4.56796680e-03, 1.55560048e-02, 2.38067028e-03,
          -9.68389399e-03, -2.57386616e-03, -2.48305453e-03,
          1.86141103e-03, -7.74513138e-03, -4.98655718e-03,
          8.67936108e-03, 9.41038597e-03, -2.69517768e-04,
          -1.10059399e-02, -2.89094495e-03, 8.51809047e-03,
          2.83394288e-03, 5.81814116e-03, 4.77456313e-04, 1.21072810e-02,
          1.49630867e-02, 4.87446180e-03, -1.46487737e-02,
          -1.36270057e-02, -2.79455427e-02, -4.96312603e-03,
          -4.47720801e-03, 1.08391594e-03, 1.10901389e-02,
          1.08018341e-02, 2.67366879e-03, -1.18365558e-02,
          -1.27371019e-02, -2.80822180e-02, -4.35973750e-03,
          -2.06971262e-03, -5.98374009e-03, 2.00847276e-02,
          1.39638148e-02, -4.44944622e-03, -1.39660370e-02,
          -1.52406131e-03, 8.95002577e-03, -5.27104654e-04,
          9.68988892e-03, 7.03753997e-03, 1.34676713e-02, 2.26896405e-02,
          -1.85997819e-03, -2.36667530e-03, 4.65624238e-04,
          -3.85280792e-03, -1.86004757e-03, 2.24034372e-03,
          6.67057093e-03, 1.75073743e-02, 2.86151492e-03, 2.74233078e-03,
          -5.63513022e-03, -7.62428483e-03, -1.63955968e-02,
          -6.22788910e-03, -8.15400854e-03, -3.69770173e-03,
          7.59256165e-03, -7.41819851e-04, -1.14953909e-02,
          -2.12918930e-02, -1.57187991e-02, -1.33000072e-02,
          -4.60049836e-03, -6.16247440e-03, 4.27623093e-03,
          1.95812318e-03, 2.26819646e-02, -6.69543073e-03,
          -4.96991491e-03, -2.77152937e-03, -4.95646207e-04,
          5.85159333e-03, 2.91343953e-04, 5.61522599e-03, 2.22626720e-02,
          2.48689465e-02, -4.50810604e-03, -2.11009663e-03,
          -4.17521782e-03, -7.26128416e-03, 4.77408431e-03,
          4.70733037e-03, 1.14440387e-02, 2.80942619e-02,
          -5.79389837e-03, -1.58496201e-02, -2.46664435e-02,
          -1.72734633e-02, -1.29564516e-02, -6.05384004e-04,
          -9.69149638e-03, -3.46748275e-03, 3.39054037e-03,
          7.31056696e-03, -6.93472195e-03, -5.74910687e-03,
          -5.47779538e-03, -5.23001980e-03, 3.91191104e-03,
          -3.73032759e-03, 1.67765433e-03, 1.03862546e-02,
          1.20424246e-02, -2.18507857e-03, 9.11888434e-04,
          -2.56185280e-03, -1.54187270e-02, 6.51416427e-04,
          3.38439550e-03, 8.90845712e-03, 2.33726166e-02, 2.45198030e-02,
          6.41724980e-03, 3.85581097e-03, -5.52692730e-03,
          -1.58782750e-02, -6.51123701e-03, -3.20494524e-03,
          1.12783723e-02, 2.53388062e-02, 1.39829647e-02, 5.78453019e-03,
          2.86286534e-03, -7.22902268e-03, -2.01360546e-02,
          -3.60197591e-04, 7.53310556e-03, 1.12834219e-02,
          2.16113999e-02, 2.25070454e-02, 8.00135732e-03,
          -1.29992445e-03, -1.73730627e-02, -3.56136784e-02,
          -7.64285820e-03, -3.16319824e-03, 8.82756710e-03,
          1.62405670e-02, 3.45890075e-02, 5.04501909e-03, 8.52112938e-03,
          -8.16015643e-04, -2.90280804e-02, -6.95859455e-03,
          1.65824755e-03, 8.43302626e-03, 1.76003557e-02, 2.16658972e-02,
          4.16267570e-03, 6.81108236e-03, 1.74235704e-03,
          -1.03199081e-02, 1.02724871e-02, 1.47844502e-03,
          2.73721968e-03, 1.22701460e-02, 4.22391556e-02, 5.71682211e-03,
          -2.01551034e-03, -1.27567640e-02, -3.47404554e-02,
          -7.61010172e-03, -5.37817413e-03, 2.50584073e-03,
          1.48232859e-02, 3.22329774e-02, 8.07932205e-03, 1.03068596e-03,
          -6.40034303e-03, -1.67467073e-02, 1.27496729e-02,
          7.49513647e-03, 3.84170306e-03, 1.68361608e-02, 7.42114149e-03,
          5.61637338e-03, 3.58096673e-03, 5.63364150e-03,
          -2.85706879e-03, 1.21411569e-02, 2.49322527e-03,
          2.54068128e-03, 6.88647572e-03, 1.74059649e-03, 1.92042754e-03,
          2.40277476e-03, 2.90601281e-03, 2.42202803e-02, 2.81463680e-03,
          1.27005856e-03, 7.01424666e-04, 1.14958268e-03, 1.39445178e-02,
          1.05554378e-02, 6.62778132e-03, 6.31393306e-03,
          -4.27371226e-02, 1.96282286e-02, 7.61039322e-03,
          5.79047110e-03, 9.27943178e-03, 1.66993588e-03, 2.26485357e-03,
          2.16396339e-03, 3.87740741e-03, 2.78641824e-02, 3.73586640e-03,
          3.00915772e-03, 2.90301698e-03, 2.12636497e-03, 9.05808934e-04,
          8.70829099e-04, 1.57858257e-03, 2.29973439e-03, 2.36685667e-02,
          1.69081264e-03, 1.41059991e-03, 7.38451548e-04, 6.00239262e-04,
          5.97549253e-04, 2.77406623e-04, 1.24343182e-03, 1.65509910e-03,
          3.11584794e-03, 1.59431226e-03, 9.76071518e-04, 8.26407806e-04,
          5.10993239e-04, 5.67852345e-04, 1.27886503e-03, 1.46963482e-03,
          3.67440213e-03, 2.31680442e-02, 2.53056525e-03, 2.60517164e-03,
          1.56972185e-03, 9.79355769e-04, 3.77064949e-04, 9.69867746e-04,
          1.86424679e-03, 2.62389099e-03, 3.14488960e-03, 1.93573849e-03,
          1.67860335e-03, 1.17746578e-03, 8.35619750e-04, 6.80957048e-04,
          1.35644092e-04, 1.24524825e-03, 2.02619168e-03, 4.81025456e-03,
          2.14983360e-03, 4.00800811e-04, 8.11696809e-04, 4.89687256e-04,
          0., 0., 0., 0., 4.58595663e-04, 0., 0., 0., 0., 5.03998715e-04,
          8.11819453e-04, 2.22184858e-03, 4.22325451e-03, 4.81025456e-03,
          1.21693977e-03, 8.05264339e-04, 9.84163722e-04, 6.95307041e-04,
          0., 0., 0., 0., 2.65278824e-04, 0., 0., 0., 0., 0., 0., 0., 0.,
          0., 0., 0., 0., 0., 0., 0., 0., 0., 0., 0., 0., 0., 0., 0., 0.,
          0., 0., 0., 0., 0., 0., 0., 0., 0., 0., 0., 0., 0., 0., 0., 0.,
          0., 0., 0., 0., 0., 0., 0., 0., 0., 0., 0., 0., 0., 0., 0., 0.,
          0., 0., 0., 0., 0., 0., 0., 0., 0., 0., 0., 0., 0., 0., 0., 0.,
          0., 0., 0., 0., 0., 6.28310518e-05, 1.03374150e-04,
          6.45977852e-05, 1.18585571e-03, 9.09595328e-05, 1.20390781e-04,
          0., 0., 1.05210277e-03, 1.21496292e-03, 1.83951785e-03,
          1.49220531e-03, 3.31247365e-03, 2.95127812e-03, 3.25165177e-03,
          1.71386590e-03, 1.04410166e-03, 0., 1.97627633e-05,
          4.18211530e-05, 1.24777260e-04, 1.35914271e-03, 1.48078107e-04,
          1.15047274e-04, 0., 0., 9.92221059e-04, 5.79168962e-04,
          1.01517187e-03, 2.18414818e-03, 3.31247365e-03, 3.19587579e-03,
          3.07870354e-03, 8.60302767e-04, 1.19677372e-03, 1.29197526e-03,
          1.03680545e-03, 1.45012222e-03, 1.41028524e-03, 3.08458437e-03,
          2.46976595e-03, 2.38542887e-03, 1.58851244e-03, 1.04898761e-03,
          1.62898377e-03, 1.20520103e-03, 1.56572019e-03, 4.19611298e-03,
          2.26337276e-02, 4.50808695e-03, 1.91776350e-03, 1.20007957e-03,
          1.20323035e-03, 1.20125269e-03, 6.32721989e-04, 7.05244485e-04,
          1.36836001e-03, 2.79778894e-03, 2.32040230e-03, 2.32370058e-03,
          7.61013303e-04, 1.13713497e-03, 1.64028665e-03, 9.91193927e-04,
          1.02180685e-03, 4.43661492e-03, 2.24301517e-02, 6.04577083e-03,
          4.88218525e-03, 5.43367583e-04, 1.56103971e-03, 3.42146284e-03,
          2.38573295e-03, 2.41273874e-03, 4.68659075e-03, 2.86436006e-02,
          4.08902718e-03, 1.46709860e-03, 2.10727286e-03, 3.29880440e-03,
          1.96035746e-02, 1.37051512e-02, 9.94164124e-03, 1.61755905e-02,
          -2.73613743e-02, 1.23552559e-02, 5.69086522e-03,
          4.98390943e-03, 1.69269238e-02, 1.54984137e-03, 1.29562849e-03,
          2.44908221e-03, 4.79988288e-03, 3.62716913e-02, 6.28986349e-03,
          6.53659366e-03, 1.35910825e-03, 1.74496660e-03, 9.58901364e-03,
          5.09865722e-03, 1.08420998e-02, 1.11053372e-02,
          -2.38298289e-02, 2.23359149e-02, 1.39290038e-02,
          9.49021056e-03, 8.66989326e-03, 2.25343890e-02, 7.38630211e-03,
          6.31627999e-03, 3.38297593e-03, -9.33209527e-03,
          1.00023579e-02, 5.21013420e-03, 2.80003017e-03, 2.27741655e-02,
          1.43808955e-02, -6.27531018e-03, -1.30832298e-02,
          -5.23055112e-03, -2.97587514e-02, 1.34561742e-02,
          2.88050133e-03, 3.35198571e-03, 1.56284664e-02, 1.83261968e-02,
          5.18845022e-03, 6.09364221e-03, 8.15695457e-05,
          -5.93569828e-03, 9.88417305e-03, 5.00748539e-03,
          7.47800339e-03, 1.44994194e-02, 2.70893108e-02,
          -3.42723588e-03, -1.68841314e-02, -1.39428787e-02,
          -3.16262282e-02, 7.96086900e-03, -3.82122421e-03,
          1.07069956e-02, 2.59793121e-02, 2.40869317e-02, 2.32754415e-03,
          -7.77849043e-03, 9.65774152e-03, 1.28147192e-03,
          1.12345135e-02, 6.96422067e-03, 1.02961175e-02, 2.40449701e-02,
          1.74945071e-02, -4.88057593e-03, -2.25621797e-02,
          -2.02223938e-02, -3.57624181e-02, -8.40108749e-03,
          1.07688392e-02, 1.37529857e-02, 1.67787038e-02, 2.00393293e-02,
          -8.78380425e-03, -1.54649373e-02, -9.26646288e-04,
          -1.03617273e-03, 1.42747676e-02, 8.24193936e-03,
          9.18529555e-03, 1.86069421e-02, -4.03000228e-03,
          -1.99989844e-02, -2.60473769e-02, -3.46847959e-02,
          -2.95071509e-02, -1.17055262e-02, 1.00817839e-02,
          1.10070836e-02, 4.67761420e-03, 1.56594310e-02,
          -5.48668904e-03, -1.78210381e-02, -1.68318786e-02,
          -3.23193856e-02, -9.17913206e-03, 6.60898164e-03,
          5.87715115e-03, 1.90466773e-02, 1.35022476e-02,
          -1.00967253e-03, -9.13992338e-03, -9.41918138e-03,
          -3.10460869e-02, -1.03444364e-02, -3.02516157e-03,
          1.10727560e-03, 1.01430919e-02, 6.71758782e-03,
          -1.38616553e-02, -1.45308934e-02, -1.21633122e-02,
          -1.46059319e-02, -2.49113399e-03, 1.02775441e-02,
          7.47552933e-03, 1.39579363e-02, 1.35560101e-03,
          -1.05453245e-02, -4.33794688e-03, -5.79586625e-03,
          -1.01399412e-02, 3.67430737e-03, 1.11653307e-03,
          2.06058146e-03, 2.85522570e-03, 1.40935378e-02, 3.65800504e-03,
          -7.07009155e-03, -5.31544629e-03, -1.45883877e-02,
          -1.17351618e-02, -8.75038281e-03, -1.09778019e-03,
          2.50088121e-03, 1.00336578e-02, -7.24188518e-03,
          -1.59305595e-02, -7.77333323e-03, -1.05323521e-02,
          -6.62121503e-03, -1.56031558e-02, -5.28194243e-03,
          6.14692597e-03, 4.50499495e-03, 4.88693686e-03,
          -5.48495026e-03, -6.61768345e-03, -1.01437105e-03,
          -2.43812962e-03, -1.00969449e-02, 7.21985986e-03,
          -5.02613606e-04, 7.89469294e-03, 1.40627718e-03,
          -8.13634600e-03, -5.82893193e-03, -1.32798096e-02,
          -1.61355678e-02, -1.75603349e-02, 6.06102927e-04,
          1.01454754e-03, 1.50977578e-02, -8.48319661e-03,
          -1.83801968e-02, -1.64530147e-02, -1.51408315e-02,
          -5.54987323e-03, -1.30370231e-02, -4.52646846e-03,
          5.15231537e-03, 3.15039419e-02, 4.29163128e-03,
          -4.35851235e-03, -1.14712492e-02, -7.24369101e-03,
          -3.28646135e-03, -6.82241144e-03, -2.23667687e-03,
          1.13675771e-02, 1.52915474e-02, 1.19692122e-03,
          -6.45535346e-03, -1.17711388e-02, -1.57157816e-02,
          -2.19971444e-02, -2.11507380e-02, -5.07702632e-03,
          1.18061109e-02, 2.34216042e-02, 1.46554615e-02,
          -8.75405967e-03, -2.04497408e-02, -1.57432985e-02,
          -1.94289852e-02, -1.80650540e-02, -7.91785121e-03,
          2.30870396e-02, 3.13636549e-02, 1.11009404e-02, 5.39410580e-03,
          -9.84956138e-03, -1.78151391e-02, -1.57476438e-03,
          2.30964087e-03, 6.15686877e-03, 1.74394734e-02, 3.35735939e-02,
          8.35671928e-03, -6.69780886e-04, -2.25558951e-02,
          -3.64033952e-02, -7.75823696e-03, 1.76812988e-03,
          9.11773555e-03, 1.82761122e-02, 2.47452687e-02, 9.77487583e-03,
          -1.54043233e-03, -1.85355842e-02, -2.95152813e-02,
          -1.18916081e-02, -5.21596475e-03, -2.02520867e-03,
          2.24556196e-02, 2.87872162e-02, 8.49421043e-03,
          -1.33562135e-02, -2.10697334e-02, -2.94870753e-02,
          2.46091862e-03, 2.16710772e-02, 2.65985150e-02, 3.15528922e-02,
          2.85394881e-02, 6.62636478e-03, -4.86150524e-03,
          -2.09481325e-02, -4.63051833e-02, -2.76865298e-03,
          -3.25686531e-03, 6.59545697e-03, 1.76519994e-02,
          2.26897895e-02, 7.76054338e-03, 1.31121301e-03,
          -5.83055057e-03, -1.40709803e-02, 9.19968449e-03,
          8.61196779e-03, 5.93491876e-03, 1.68721825e-02, 2.93148085e-02,
          1.12011805e-02, -1.08311698e-02, -1.68738719e-02,
          -3.91254351e-02, 1.15814433e-02, 1.72164086e-02,
          2.29547620e-02, 2.97700185e-02, 1.75915118e-02, 6.23819465e-03,
          -5.15987085e-05, 4.51683969e-04, -5.91857312e-03,
          1.42195895e-02, 1.22733638e-02, 6.73620636e-03, 1.85896121e-02,
          1.10946186e-02, 7.39337038e-03, 7.80530693e-03, 6.68808771e-03,
          -3.80038023e-02, 9.84700676e-03, 8.25530570e-03,
          6.43660594e-03, 8.42333678e-03, 1.09555118e-03, 1.63104746e-03,
          1.92800013e-03, 3.24708829e-03, 2.64900476e-02, 3.26694222e-03,
          3.05251032e-03, 2.82976031e-03, 1.20134663e-03, 8.72100051e-03,
          3.58982221e-03, 5.76864416e-03, 7.24803284e-03,
          -7.13441847e-03, 9.10644606e-03, 5.12523903e-03,
          4.12330590e-03, 5.22972690e-03, 1.50736189e-03, 1.43355038e-03,
          1.37014850e-03, 2.86912173e-03, 2.88750958e-02, 4.15970851e-03,
          2.67791376e-03, 1.66399148e-03, 1.21437549e-03, 9.43904626e-04,
          1.76067569e-03, 1.45869632e-03, 3.08823423e-03, 2.25186348e-02,
          1.64440181e-03, 2.44934089e-03, 1.63582421e-03, 6.77548174e-04,
          7.46216974e-04, 2.02852744e-03, 1.86049577e-03, 1.97653868e-03,
          2.07104161e-03, 1.25825009e-03, 9.88343032e-04, 5.53447811e-04,
          5.58503438e-04, 2.43161968e-03, 2.28070235e-03, 2.13794247e-03,
          2.36583152e-03, 2.26702802e-02, 1.29127898e-03, 1.47556141e-03,
          1.28806056e-03, 8.83978326e-04, 1.77130883e-03, 2.30583572e-03,
          2.17131409e-03, 1.28749991e-03, 2.81343120e-03, 1.39186415e-03,
          5.04830910e-04, 4.30054119e-04, 6.14323770e-04, 8.15382635e-04,
          2.62434734e-03, 2.41042837e-03, 2.54892744e-03, 4.62827180e-03,
          8.41038360e-04, 5.69764234e-04, 3.50123126e-04, 4.49710846e-04,
          0., 0., 0., 0., 1.94280743e-04, 0., 0., 0., 0., 1.22407824e-03,
          2.80246185e-03, 1.86967419e-03, 9.31968854e-04, 4.83392878e-03,
          2.19451892e-03, 7.55466230e-04, 2.59707420e-04, 4.72182903e-04,
          0., 0., 0., 0., 4.54794761e-04, 0., 0., 0., 0., 0., 0., 0., 0.,
          0., 0., 0., 0., 0., 0., 0., 0., 0., 0., 0., 0., 0., 0., 0., 0.,
          0., 0., 0., 0., 0., 0., 0., 0., 0., 0., 0., 0., 0., 0., 0., 0.,
          0., 0., 0., 0., 0., 0., 0., 0., 0., 0., 0., 0., 0., 0., 0., 0.,
          0., 0., 0., 0., 0., 0., 0., 0., 0., 0., 0., 0., 0., 0., 0., 0.,
          0., 0., 0., 0., 0., 0., 2.51572219e-05, 1.80594056e-04,
          1.36849820e-03, 6.64221880e-05, 3.35126169e-05, 4.53825669e-06,
          0., 5.30747289e-04, 8.66063638e-04, 1.02415029e-03,
          3.47436662e-03, 3.88831715e-03, 1.84612989e-03, 1.27439015e-03,
          5.91043441e-04, 7.22622906e-04, 5.36410334e-06, 2.46457585e-05,
          5.69201802e-05, 1.06081017e-04, 1.63963763e-03, 1.67859780e-05,
          5.48706739e-05, 7.05242783e-05, 4.35921138e-05, 4.92750958e-04,
          1.37912796e-03, 1.56253378e-03, 2.20927014e-03, 3.88831715e-03,
          9.66685126e-04, 1.42679620e-03, 2.92863278e-03, 3.12987505e-03,
          6.37603691e-04, 7.46479898e-04, 1.05954683e-03, 1.88881240e-03,
          3.04834661e-03, 1.59736339e-03, 1.31434784e-03, 5.10111800e-04,
          8.08986544e-04, 1.36252702e-03, 1.17723236e-03, 1.46408787e-03,
          3.12346802e-03, 2.64293626e-02, 6.26937998e-03, 6.52139727e-03,
          1.35065033e-03, 2.53700209e-03, 5.73010766e-04, 1.05464214e-03,
          1.31340418e-03, 1.41934841e-03, 3.28377378e-03, 1.38516491e-03,
          1.29634480e-03, 2.11405498e-03, 2.47266423e-03, 2.36913865e-03,
          1.69206003e-03, 2.13255547e-03, 3.10762087e-03, 1.60931200e-02,
          2.43424624e-03, 1.72585738e-03, 2.46360688e-03, 3.96423927e-03,
          1.29331555e-03, 1.81547005e-03, 2.18250928e-03, 2.91811628e-03,
          3.03873569e-02, 4.42326022e-03, 7.40363635e-03, 2.14025564e-03,
          2.12313235e-03, 7.50132184e-03, 4.48973291e-03, 1.23554626e-02,
          8.51859152e-03, -1.55204562e-02, 1.74403880e-02,
          1.03201950e-02, 7.02134054e-03, 7.75433658e-03, 2.83771846e-03,
          2.82378588e-03, 2.26792553e-03, 3.30049777e-03, 3.15837562e-02,
          3.23324744e-03, 3.06351297e-03, 2.71939882e-03, 2.94255884e-03,
          1.35640493e-02, 5.24814054e-03, 1.69304889e-02, 1.28009217e-02,
          -3.99591811e-02, 1.84771307e-02, 1.25060137e-02,
          4.80514858e-03, 1.40315881e-02, 1.62935685e-02, 3.61834955e-03,
          7.12373899e-03, 2.03962415e-03, 1.15581723e-02, 7.59598240e-03,
          2.76584085e-03, 6.27156626e-03, 1.28345145e-02, 2.28013620e-02,
          -5.27253514e-03, -1.81236509e-02, -1.65591091e-02,
          -1.94374267e-02, -1.02246506e-02, -1.07017057e-02,
          7.92162307e-03, 2.28219628e-02, 1.02665490e-02,
          -4.38654749e-03, 8.78452603e-03, 1.95917347e-03,
          1.11275269e-02, 9.28800926e-03, 7.29221327e-04, 1.99277396e-03,
          1.16608627e-02, 4.98597464e-03, -1.84914619e-02,
          -2.07694694e-02, -2.77536307e-02, -1.63828470e-02,
          -2.45290548e-02, -1.72215588e-02, 2.16323393e-03,
          4.59104590e-03, 2.34932788e-02, -7.86528364e-03,
          -1.53890811e-02, -9.98501945e-03, -1.80266460e-03,
          2.59010098e-03, 6.47100806e-03, 1.03625385e-02, 1.98510718e-02,
          3.12005263e-03, -1.13883177e-02, -1.24784997e-02,
          -1.89375263e-02, -2.17720531e-02, -8.00399575e-03,
          8.09649564e-03, 3.58632347e-03, 2.84208008e-03, 1.37679838e-02,
          -1.16004143e-02, -1.51749011e-02, -1.50809968e-02,
          -1.44834230e-02, -8.74111708e-03, -1.47128466e-03,
          1.07515883e-02, 1.23294443e-02, 8.54097400e-03,
          -5.68838837e-03, -7.24997558e-03, -1.56609006e-02,
          -2.68393699e-02, -1.28389467e-02, -3.41937481e-03,
          -1.67358993e-03, 4.41923924e-03, -1.83394994e-03,
          -1.07998950e-02, -6.81085093e-03, -7.32282456e-03,
          -2.27475306e-03, -5.61164366e-03, 5.24270954e-03,
          6.20449567e-03, 8.22835416e-03, -1.12655452e-02,
          -1.15746493e-02, -6.02055667e-03, -7.83006102e-03,
          8.32068443e-04, 1.21885575e-02, 1.67375454e-03, 4.74253949e-03,
          -7.52813090e-03, -1.69901445e-03, 1.43781677e-03,
          3.20034660e-03, -3.88876791e-03, -2.00551096e-03,
          -1.37058189e-02, -9.62386932e-03, -5.10723284e-03,
          3.64394137e-03, -1.24908695e-02, -5.09235030e-03,
          -8.06072820e-03, -6.48787338e-03, 1.25828488e-02,
          1.78198528e-03, -1.52837038e-02, -1.14247706e-02,
          -7.72584975e-03, -9.87814553e-03, -1.88846199e-03,
          -8.02649464e-03, -1.08065810e-02, 4.07163613e-03,
          1.95090026e-02, -4.22662264e-03, 5.37137967e-03,
          -4.10663104e-03, 1.12208640e-02, 9.41372593e-04,
          -5.03696268e-03, -6.35016803e-03, -1.75574943e-02,
          -5.86187607e-03, -8.49292334e-03, 2.80716596e-03,
          1.05505195e-02, -1.55810127e-02, -1.47958882e-02,
          -1.78146772e-02, -1.50569817e-02, 1.35369478e-02,
          1.66881941e-02, -7.34002516e-03, -7.96627812e-03,
          -1.09302374e-02, -7.51555385e-03, -1.18440343e-02,
          -1.21665560e-02, -1.08135594e-02, -6.78417739e-03,
          -7.04619987e-03, -1.30852382e-03, 9.08716174e-04,
          -8.22302606e-03, 2.03879923e-02, -5.36628009e-04,
          -7.51390355e-03, -1.21755358e-02, -1.38303572e-02,
          -1.23357046e-02, -1.22158322e-02, 5.35500469e-03,
          1.85865946e-02, 2.56438665e-02, 3.41544999e-03,
          -1.02441525e-02, -2.07799450e-02, -1.50747653e-02,
          -1.27684874e-02, -1.07028717e-02, -2.34005303e-04,
          2.68170293e-02, -5.57023566e-03, -1.44475922e-02,
          -1.12044849e-02, -1.28630148e-02, -1.23206908e-02,
          -9.76611115e-03, -2.16012448e-03, 5.92199992e-03,
          -5.85490139e-03, 1.77872041e-03, -8.28615762e-03,
          -6.40471932e-03, -1.13844248e-02, -1.27292126e-02,
          -1.01178912e-02, 1.51781875e-04, 9.85440426e-03,
          3.31257106e-05, 2.71168854e-02, 2.24821107e-03,
          -1.11677479e-02, -1.93074308e-02, -1.92971658e-02,
          -4.66928259e-03, 7.86395394e-04, 6.00515306e-03,
          1.86567139e-02, 2.77919136e-02, 1.16940504e-02,
          -1.44249089e-02, -1.19501343e-02, -1.34271206e-02,
          2.77845422e-03, 1.97129250e-02, 2.46711187e-02, 2.46730354e-02,
          6.63067540e-03, 2.70734145e-03, -8.69835913e-03,
          -9.80972499e-03, -1.49010299e-02, -6.60231197e-03,
          4.53646760e-03, 1.15717128e-02, 4.88119526e-03, 1.12189539e-02,
          3.80737847e-03, -8.62304028e-03, 3.51193565e-04,
          -6.12960570e-03, -2.94227852e-03, 1.30593881e-03,
          1.44232847e-02, 1.63594466e-02, 1.26636550e-02, 6.34986814e-03,
          -1.44519778e-02, -1.43697616e-02, -3.16918120e-02,
          5.07247122e-03, 8.02110136e-03, 1.13964612e-02, 1.53473131e-02,
          8.98927916e-03, 5.31765865e-03, 2.15121615e-03, 3.54982889e-03,
          -1.53005228e-03, 1.16669927e-02, 7.03518093e-03,
          7.01942807e-03, 9.29869991e-03, 1.14043001e-02, 7.04289507e-03,
          -4.06408403e-03, -2.22711256e-04, -2.91918293e-02,
          -2.43348395e-03, -7.44890189e-03, 6.41272776e-03,
          1.37676625e-02, 1.16502605e-02, 8.05557333e-03, 6.46045944e-03,
          1.13315126e-02, -7.21912482e-04, 7.61567475e-03,
          2.54918099e-03, 8.18155706e-03, 1.21581908e-02, 7.06541678e-03,
          4.38563246e-03, 3.43253277e-03, 6.27808040e-03,
          -2.44106296e-02, 8.76598060e-03, 5.17632486e-03,
          5.52124623e-03, 3.33630899e-03, 1.71944872e-03, 1.21096382e-03,
          1.08442269e-03, 3.24671529e-03, 2.69864425e-02, 3.39705776e-03,
          1.38820312e-03, 1.21316698e-03, 1.48747268e-03, 1.63002480e-02,
          8.36364646e-03, 7.06502981e-03, 9.74479411e-03,
          -1.73383281e-02, 9.50268842e-03, 7.50606228e-03,
          6.46814844e-03, 7.95552600e-03, 1.70501892e-03, 1.94169919e-03,
          2.85385991e-03, 4.91878809e-03, 2.85694413e-02, 3.66035360e-03,
          2.04301509e-03, 1.93800987e-03, 2.08379282e-03, 1.64641149e-03,
          1.24653778e-03, 2.43110768e-03, 2.24109739e-03, 2.25823540e-02,
          1.00920571e-03, 3.81041842e-04, 4.93359170e-04, 8.81295826e-04,
          8.04564857e-04, 1.11490604e-03, 2.60312320e-03, 1.59715186e-03,
          2.97441520e-03, 1.78418658e-03, 3.26882437e-04, 1.78049595e-04,
          4.51191620e-04, 1.34018750e-03, 2.60731787e-03, 2.62371218e-03,
          3.30360327e-03, 2.26182118e-02, 1.42580096e-03, 7.21038785e-04,
          6.25203480e-04, 7.07954692e-04, 8.25744821e-04, 1.83186738e-03,
          2.60312320e-03, 2.61196215e-03, 3.06615373e-03, 1.30062399e-03,
          2.22740637e-04, 3.71632283e-04, 2.97083432e-04, 2.47415941e-04,
          9.27244080e-04, 2.12879851e-03, 1.24928018e-03, 4.56232578e-03,
          3.20623838e-03, 5.96372876e-04, 1.16571289e-04, 3.17058759e-04,
          0., 0., 0., 0., 3.57517711e-04, 0., 0., 0., 0., 6.53907773e-04,
          1.01421936e-03, 3.55718168e-03, 2.39055115e-03, 4.56232578e-03,
          2.29240325e-03, 3.68819921e-04, 7.97765097e-04, 3.40060331e-04,
          0., 0., 0., 0., 4.22612793e-04, 0., 0., 0., 0., 0., 0., 0., 0.,
          0., 0., 0., 0., 0., 0., 0., 0., 0., 0., 0., 0., 0., 0., 0., 0.,
          0., 0., 0., 0., 0., 0., 0., 0., 0., 0., 0., 0., 0., 0., 0., 0.,
          0., 0., 0., 0., 0., 0., 0., 0., 0., 0., 0., 0., 0., 0., 0., 0.,
          0., 0., 0., 0., 0., 0., 0., 0., 0., 0., 0., 0., 0., 0., 0., 0.,
          0., 0., 0., 0., 1.21056082e-05, 7.24993370e-05, 6.50629663e-05,
          7.60834373e-05, 1.04792917e-03, 2.58758464e-05, 2.76304545e-05,
          3.63133913e-05, 3.61911952e-05, 1.39764335e-03, 1.35337794e-03,
          1.38267234e-03, 1.50351995e-03, 3.71675496e-03, 1.30880706e-03,
          6.87773514e-04, 1.94042374e-03, 3.18693183e-03, 5.50254890e-06,
          4.74904664e-05, 6.20736973e-05, 1.13351409e-04, 1.80478499e-03,
          2.31129059e-04, 3.17931444e-05, 1.35626308e-07, 2.41274643e-06,
          1.56943442e-03, 1.49290601e-03, 1.90751045e-03, 2.42140051e-03,
          3.71675496e-03, 3.71675496e-03, 6.32636365e-04, 2.66486924e-04,
          1.06021634e-03, 9.46746906e-04, 8.78049061e-04, 1.00471906e-03,
          8.14354280e-04, 2.95724208e-03, 1.74126390e-03, 8.00219888e-04,
          1.55899464e-03, 2.53843167e-03, 4.18319413e-03, 1.40444550e-03,
          1.49681163e-03, 2.42870604e-03, 1.90901626e-02, 2.09361990e-03,
          1.31092360e-03, 1.83711632e-03, 3.67526687e-03, 1.01225206e-03,
          1.32625527e-03, 1.71253120e-03, 1.46687881e-03, 2.99589615e-03,
          2.45920196e-03, 7.27389124e-04, 3.76329408e-04, 8.91883741e-04,
          5.05901081e-03, 2.17055762e-03, 2.73377798e-03, 2.82157143e-03,
          2.58923527e-02, 2.18567089e-03, 1.30317372e-03, 2.38880725e-03,
          2.74340576e-03, 3.09129269e-03, 1.77180732e-03, 1.61761616e-03,
          2.69028405e-03, 2.97329687e-02, 2.70359404e-03, 1.07206183e-03,
          1.71338813e-03, 2.47944775e-03, 7.18092918e-03, 3.57010379e-03,
          7.32947979e-03, 1.13752037e-02, -2.69363262e-02,
          1.39816292e-02, 6.28696056e-03, 2.72893603e-03, 6.38591219e-03,
          2.59937649e-03, 2.20014318e-03, 3.88339744e-03, 3.40619171e-03,
          3.38463634e-02, 2.68648751e-03, 1.47468213e-03, 2.41070078e-03,
          2.49002874e-03, 7.50020519e-03, 4.88757761e-03, 1.11299790e-02,
          1.26591781e-02, -1.71669666e-02, 1.10793589e-02,
          8.53221957e-03, 3.78840347e-03, 8.20464920e-03, 6.95891329e-04,
          -5.04160626e-03, 4.90257191e-03, 1.22612400e-03,
          2.39218399e-02, 1.01140020e-02, -2.14885469e-04,
          -4.36455361e-04, 4.10438934e-03, -1.29718008e-02,
          -2.72034835e-02, -1.21603403e-02, -2.47530136e-02,
          -2.05595838e-03, -1.07404729e-02, -1.66551247e-02,
          -6.33818842e-03, -5.36178285e-03, 2.93492712e-03,
          -4.98092454e-03, 2.78207776e-03, -6.82829297e-04,
          2.27849744e-02, 9.42202937e-03, 1.82648480e-03,
          -2.06312118e-03, 4.63368045e-03, -1.50806848e-02,
          -2.44398862e-02, -9.66958888e-03, -1.80216823e-02,
          -6.91914139e-03, -1.31977592e-02, -2.00015269e-02,
          -1.35001391e-02, -8.33654404e-03, 1.19772227e-03,
          -1.00212293e-02, 2.17619771e-03, -1.50854308e-02,
          7.19209027e-04, -8.70859344e-03, 3.00687598e-03,
          4.76940582e-03, 7.17589352e-03, 4.25058650e-03, 4.75362409e-03,
          9.24308877e-03, -9.07246023e-03, 3.89679153e-05,
          -1.50287170e-02, -4.63868072e-03, -6.26602385e-04,
          5.55464299e-03, 1.10069774e-02, -4.18568868e-03,
          9.86929797e-03, -7.46725919e-03, -9.86452447e-04,
          -1.31902257e-02, -7.56921829e-04, -2.19281204e-03,
          1.18579743e-02, 1.03577096e-02, 5.83969196e-03, 4.49208170e-03,
          -1.25855999e-02, -5.93754835e-03, -1.32630663e-02,
          1.02636004e-02, -2.40740669e-03, 5.43543696e-03,
          -1.45119987e-03, 1.54043653e-03, 5.43367234e-04,
          6.84874423e-04, 1.21222052e-03, -1.22931208e-02,
          -1.39363185e-02, -1.02760941e-02, -2.03919085e-03,
          -1.72210708e-02, -1.00883050e-02, -1.49950562e-02,
          -2.95258174e-03, 2.68649813e-02, -2.49723997e-03,
          -2.41706278e-02, -1.62125565e-02, -1.32512385e-02,
          -2.72216694e-03, -2.35165993e-04, -5.72129106e-03,
          -1.28652406e-04, 3.84406419e-03, -5.13447728e-03,
          -5.43666491e-03, -2.59841816e-03, -6.56530494e-03,
          -1.21357096e-02, -7.74814934e-03, -1.55512625e-02,
          -2.65778764e-03, 1.69198159e-02, -4.92643844e-03,
          -1.54180713e-02, -7.13890512e-03, -1.49012115e-02,
          -1.52914412e-02, -1.67194698e-02, -1.73571371e-02,
          -6.43331837e-03, 3.73348333e-02, 8.58684536e-03,
          -9.54972766e-03, -9.26385820e-03, -1.33939898e-02,
          -1.42773800e-02, -1.54829752e-02, -1.64406858e-02,
          -1.11923423e-02, 2.04227486e-04, -7.21743377e-03,
          9.98199917e-04, -1.45923666e-04, -1.40189193e-02,
          -1.36506679e-02, -1.03026228e-02, -1.37521224e-02,
          1.02083525e-03, 2.68476214e-02, -9.92706791e-03,
          -3.62618198e-03, -1.57881249e-03, -1.33299390e-02,
          -1.48800872e-02, -1.06589068e-02, -6.22756593e-03,
          2.22669588e-03, -1.09955445e-02, -1.90754216e-02,
          -1.32653920e-03, 9.48355126e-04, -1.51262851e-02,
          -2.60631298e-03, -1.07010733e-02, -6.01979019e-03,
          -1.53956218e-02, 7.05977622e-03, -7.00363936e-03,
          1.22382939e-02, 6.64163521e-03, -3.86377447e-03,
          1.67144611e-02, 9.61001497e-03, 5.03024130e-05,
          -3.18250316e-03, 3.03459563e-03, -1.82458607e-03,
          2.07472090e-02, 2.15502325e-02, 9.06124432e-03,
          -8.74788780e-03, -8.68208241e-03, -1.69712398e-03,
          1.00430823e-03, 5.61938295e-03, -2.52000596e-02,
          -5.75988414e-03, -5.64912148e-03, -1.07119251e-02,
          8.26428365e-03, 4.37365379e-03, -3.96487536e-04,
          -2.30550091e-03, 1.71860284e-03, -7.05392426e-03,
          7.49823032e-03, 7.98393041e-03, 1.01691904e-03, 4.54097008e-03,
          2.13393825e-03, -8.85904767e-03, -9.21747833e-03,
          -2.22230889e-02, -1.70849985e-03, 3.77153559e-03,
          6.84479577e-03, 6.45041699e-04, 7.24689150e-03, 3.67828831e-03,
          -9.14452784e-03, -9.22876783e-03, -1.03123188e-02,
          1.01646800e-02, -8.04438535e-03, 7.31316395e-03,
          1.39514087e-02, 7.46782450e-03, 5.21956943e-03,
          -8.14550463e-03, -1.75692029e-02, -2.24307328e-02,
          9.60446312e-04, 7.23803090e-03, 7.86589924e-03, 6.12900127e-03,
          1.45671545e-02, 1.32311694e-02, -1.19462167e-03,
          -2.14087777e-02, -5.35880728e-03, 2.88228616e-02,
          1.01855183e-02, 9.48395114e-03, 1.47841712e-02, 7.80755095e-03,
          5.34810498e-03, -1.02902623e-03, -1.22305322e-02,
          -3.55117992e-02, 1.17433874e-03, -1.20982155e-02,
          -3.42972041e-03, 1.36458594e-02, 1.01964846e-02,
          6.39685383e-03, 9.53515433e-03, 8.25676136e-03,
          -4.11861017e-03, 5.96712157e-03, -6.18851045e-04,
          1.50011072e-03, 1.53953666e-02, 1.25962058e-02, 7.71304546e-03,
          1.70965481e-03, -1.84667632e-02, -3.40641290e-02,
          1.14015518e-02, -1.89285271e-03, -3.73068242e-03,
          1.13549465e-02, 1.25469444e-02, 6.62261713e-03, 9.74634569e-03,
          -2.47453782e-03, -1.14155584e-04, 1.01337461e-02,
          5.67171257e-03, 2.69327289e-03, 1.81049258e-02, 1.05762314e-02,
          5.10532502e-03, 9.27921664e-03, 1.05588203e-02,
          -2.83382218e-02, 7.77668227e-03, 5.68487961e-03,
          7.24748848e-03, 1.19040087e-02, 1.71902892e-03, 2.20008683e-03,
          3.57042276e-03, 5.72399981e-03, 2.58688275e-02, 3.36627546e-03,
          2.38261395e-03, 2.06436659e-03, 1.95520371e-03, 8.09184555e-03,
          4.46522003e-03, 1.35121644e-02, 8.13593622e-03,
          -1.96211096e-02, 8.63572024e-03, 6.61858963e-03,
          8.55152402e-03, 1.36205452e-02, 2.19579227e-03, 2.00407184e-03,
          3.04757943e-03, 4.53007640e-03, 2.66530756e-02, 3.88970668e-03,
          2.16476154e-03, 1.69466331e-03, 1.52219937e-03, 1.49108120e-03,
          2.51145312e-03, 2.56970525e-03, 3.16099729e-03, 2.49024257e-02,
          1.55293825e-03, 1.51115260e-03, 9.73250717e-04, 9.05532797e-04,
          1.53660355e-03, 1.48589036e-03, 2.50100205e-03, 1.96368317e-03,
          2.54259584e-03, 6.98770396e-04, 2.36712702e-04, 6.87547901e-04,
          7.33546854e-04, 1.42784300e-03, 1.40526483e-03, 2.58210371e-03,
          2.97436863e-03, 1.99935548e-02, 2.43200548e-03, 1.22614310e-03,
          1.44310435e-03, 1.15260144e-03, 1.35431613e-03, 7.08373147e-04,
          2.50304234e-03, 1.15980103e-03, 2.44642398e-03, 7.92349572e-04,
          4.99144197e-04, 7.25520076e-04, 1.13787886e-03, 2.23295321e-03,
          9.58103454e-04, 3.03879287e-03, 2.06671702e-03, 4.70653130e-03,
          1.07197533e-03, 2.09062637e-04, 1.72066409e-03, 1.05708872e-03,
          0., 0., 0., 0., 3.90246598e-04, 0., 0., 0., 0., 2.27329810e-03,
          8.37856729e-04, 2.20935582e-03, 1.17564457e-03, 4.70653130e-03,
          6.23516971e-04, 5.58629341e-04, 6.89969573e-04, 1.77153421e-03,
          0., 0., 0., 0., 2.63402238e-04, 0., 0., 0., 0., 0., 0., 0., 0.,
          0., 0., 0., 0., 0., 0., 0., 0., 0., 0., 0., 0., 0., 0., 0., 0.,
          0., 0., 0., 0., 0., 0., 0., 0., 0., 0., 0., 0., 0., 0., 0., 0.,
          0., 0., 0., 0., 0., 0., 0., 0., 0., 0., 0., 0., 0., 0., 0., 0.,
          0., 0., 0., 0., 0., 0., 0., 0., 0., 0., 0., 0., 0., 0., 0., 0.,
          0., 0., 0., 0., 0., 0., 1.10954461e-05, 4.87088364e-05,
          1.89826125e-03, 2.76255392e-04, 1.03324077e-04, 0., 0.,
          1.31511828e-03, 1.39677664e-03, 1.09443546e-03, 1.22889003e-03,
          4.38815169e-03, 4.38815169e-03, 1.76456047e-03, 1.81302472e-04,
          3.74113646e-04, 0., 0., 0., 3.11646436e-05, 1.32499763e-03,
          8.54364553e-05, 9.50500980e-05, 5.92889000e-06, 1.84608268e-07,
          1.87541940e-03, 1.28572481e-03, 4.88204561e-04, 7.72455591e-04,
          4.38815169e-03, 1.92581117e-03, 1.54191337e-03, 4.68605751e-04,
          6.80804544e-04, 1.07492448e-03, 1.61143858e-03, 1.23396621e-03,
          9.13081691e-04, 3.33468826e-03, 2.57125543e-03, 1.25831435e-03,
          3.41041596e-04, 4.01901663e-04, 1.44071586e-03, 3.17503628e-03,
          5.59443794e-03, 2.03948491e-03, 2.10239962e-02, 2.47488264e-03,
          1.96531811e-03, 2.12002825e-03, 1.03209482e-03, 2.01398134e-03,
          1.57808000e-03, 6.32455922e-04, 4.61435266e-04, 3.05795087e-03,
          1.44382147e-03, 8.75685364e-04, 4.91430983e-04, 1.39982079e-03,
          2.79407203e-03, 2.91828974e-03, 6.44074706e-03, 1.58932677e-03,
          2.24945676e-02, 2.88423779e-03, 1.24053529e-03, 2.01918883e-03,
          2.72068521e-03, 1.05251395e-03, 3.27238441e-03, 7.62060517e-03,
          3.15074902e-03, 3.11936382e-02, 2.32727197e-03, 1.83176261e-03,
          2.13124254e-03, 1.39278907e-03, 7.21276365e-03, 6.55617053e-03,
          1.02227172e-02, 1.02257812e-02, -2.08428819e-02,
          6.59683906e-03, 7.48261018e-03, 4.16452996e-03, 1.08905621e-02,
          2.94467388e-03, 2.45438563e-03, 6.33515418e-03, 2.83135730e-03,
          3.62326242e-02, 2.43885210e-03, 1.35095557e-03, 2.25774734e-03,
          2.17509479e-03, 6.36582728e-03, 6.37817848e-03, 1.36176394e-02,
          8.84657074e-03, -3.23132351e-02, 1.29829673e-02,
          6.63571153e-03, 8.54752585e-03, 1.19167240e-02, 5.33843366e-03,
          5.74946636e-04, 2.37728190e-03, -1.97692309e-03,
          2.03920119e-02, 6.82957761e-04, 2.68014800e-03, 8.21535010e-04,
          8.17181636e-03, -4.54164762e-03, -1.28917210e-02,
          -6.97912695e-03, -1.60947777e-02, -9.60117206e-03,
          -2.03625634e-02, -2.03349348e-02, -1.61277857e-02,
          -5.05610183e-03, 8.73713382e-03, 2.12743669e-03,
          4.21647495e-03, -3.81147931e-03, 2.01858729e-02,
          -3.99450911e-03, 3.54008633e-03, 5.93675487e-03,
          1.12014534e-02, -3.39994882e-03, -5.81029244e-03,
          1.30262983e-03, -1.88950635e-02, -9.15580336e-03,
          -2.72741523e-02, -2.60753818e-02, -2.59773117e-02,
          -9.42675676e-03, 1.32633308e-02, 2.56822514e-03,
          8.88701901e-03, -1.41652639e-03, -1.89362082e-03,
          -1.57624688e-02, -1.77850891e-02, -1.58083979e-02,
          6.61288109e-03, 8.38571880e-03, 7.99236167e-03, 4.37309220e-03,
          -6.73177280e-03, -1.32074635e-02, -1.66675244e-02,
          3.04733956e-04, -1.14238393e-02, -3.51351872e-03,
          1.60149354e-02, 5.64489746e-03, 1.22092674e-02,
          -6.33466989e-03, 6.30998192e-03, -1.19243274e-02,
          -7.12663867e-03, -2.20899913e-03, 8.56242143e-03,
          3.13762315e-02, 1.10070333e-02, 1.19556393e-02, 1.56921789e-03,
          -3.73919914e-03, -1.43800555e-02, -5.04614832e-03,
          -1.09174084e-02, 2.19207462e-02, -1.26410951e-03,
          4.05641552e-03, -7.29931169e-04, -2.49398150e-03,
          -5.20668633e-04, -3.84113053e-03, -3.77102848e-03,
          5.40232810e-04, -1.15590114e-02, -1.78746171e-02,
          1.94344472e-03, -2.78647151e-03, -8.11681617e-03,
          1.01719024e-02, -9.13237687e-03, -7.20331911e-03,
          9.52678456e-05, -2.34847423e-02, 2.31592869e-03,
          8.40006955e-03, 5.01276134e-03, 2.62149726e-03, 1.44434916e-02,
          -4.90819104e-03, -5.70904184e-03, -6.03952724e-03,
          -1.53420744e-02, -2.18813010e-02, 7.11190142e-03,
          5.27445041e-03, -3.21396743e-03, 1.55201033e-02,
          -6.09268295e-03, -6.46276493e-03, -9.94290225e-03,
          -2.78433785e-02, -6.07301528e-03, 1.60020764e-03,
          -4.08267166e-04, 2.95520481e-03, 2.11125370e-02,
          -1.19956927e-02, 1.48122374e-03, 2.37890426e-03,
          -1.30205546e-02, -1.04463641e-02, -6.32347260e-03,
          -4.25727433e-03, -2.20836163e-03, -1.59799829e-02,
          -1.77974515e-02, -1.71107135e-03, 5.46226278e-04,
          -1.27300425e-02, -1.05622867e-02, 5.75562054e-03,
          1.78851667e-04, 2.55736033e-03, 2.33408138e-02,
          -2.25434778e-03, -4.39028163e-03, -6.93073310e-03,
          -1.93418860e-02, -1.07369032e-02, -2.11078580e-03,
          -1.43953543e-02, -1.41072990e-02, -1.37602622e-02,
          -1.15245339e-02, -7.99801387e-03, -6.16463181e-03,
          -1.09651964e-02, -1.15021681e-02, -9.49165504e-03,
          -7.77962897e-03, -2.66792648e-03, -1.93403736e-02,
          -1.95754655e-02, -8.90712440e-03, -6.77253166e-03,
          -1.20582609e-02, 3.36430967e-03, -3.36804474e-03,
          -6.60495413e-03, -4.20760782e-03, -2.08636858e-02,
          -4.43069823e-03, 5.11286175e-03, -1.74636662e-03,
          3.92653607e-03, 1.27397915e-02, -8.28313292e-04,
          -2.21816655e-02, -1.70751400e-02, -1.82417985e-02,
          -1.33093707e-02, -7.86279421e-03, 2.44638184e-04,
          1.96541436e-02, 3.06323022e-02, 2.64646392e-03,
          -1.11481696e-02, -1.41281122e-02, -2.32797712e-02,
          -9.76877054e-04, 5.61739039e-03, 1.18135950e-02,
          4.26243506e-02, 2.11342098e-03, -3.62851098e-03,
          -1.11023523e-02, -2.33080685e-02, -2.87818946e-02,
          -2.46796780e-03, 1.01123527e-02, 4.22990415e-03,
          6.11998746e-03, 1.03721302e-02, 9.13787168e-03,
          -4.10787936e-04, -1.68590900e-02, -1.01706171e-02,
          8.97153933e-03, 1.20431352e-02, 8.19967035e-03, 7.48012448e-03,
          2.85313595e-02, -9.40407999e-03, -2.20087096e-02,
          -2.37297043e-02, -2.49783099e-02, -4.16970020e-03,
          7.24181021e-03, 5.39194047e-03, 2.30799112e-02, 3.76807041e-02,
          -2.71204254e-03, -8.12800508e-03, -1.49510428e-02,
          -1.08948983e-02, 1.22353779e-02, 1.12988157e-02,
          1.17410375e-02, 2.91291568e-02, 8.71959422e-03, 5.93925500e-03,
          3.75555665e-03, -1.22011108e-02, -3.84695716e-02,
          1.95331592e-03, 2.51606177e-03, 4.60969703e-03, 7.66553590e-03,
          7.24262930e-03, 4.94561391e-03, 1.03557659e-02,
          -3.04865255e-03, -3.60011798e-03, 5.60388388e-03,
          8.24283063e-03, 6.76837796e-03, 1.27775483e-02, 2.29202379e-02,
          -6.48839050e-04, 3.72485025e-03, -4.69977362e-03,
          -3.77319977e-02, 5.82315680e-03, 4.01745178e-03,
          5.43443440e-03, 1.54162301e-02, 7.40928203e-03, 3.56017449e-03,
          4.11200197e-03, 2.47299881e-03, -4.63820389e-03,
          9.66775697e-03, 7.30290497e-03, 6.88620424e-03, 9.29440651e-03,
          5.66776237e-03, 4.47892817e-03, 1.19252820e-02, 8.85523204e-03,
          -8.59790575e-03, 8.09608120e-03, 7.64361396e-03,
          7.58570526e-03, 1.03238253e-02, 2.32313666e-03, 2.60326476e-03,
          2.57678726e-03, 4.21324465e-03, 2.57583708e-02, 2.99040787e-03,
          2.76548252e-03, 1.83338928e-03, 1.30566466e-03, 3.66577180e-03,
          2.91597215e-03, 2.63709296e-03, 8.53093341e-03,
          -2.90116146e-02, 1.24365529e-02, 6.55548787e-03,
          5.65380929e-03, 3.82052665e-03, 2.65129027e-03, 2.80691613e-03,
          2.14587455e-03, 4.49302420e-03, 2.73561925e-02, 3.85017530e-03,
          3.42952786e-03, 1.32996915e-03, 1.61300518e-03, 1.18467421e-03,
          1.49101519e-03, 1.96709950e-03, 2.89076706e-03, 2.42365655e-02,
          2.03314330e-03, 1.81140844e-03, 1.91917398e-03, 1.01931870e-03,
          7.26370083e-04, 1.09114603e-03, 1.31273340e-03, 1.07300351e-03,
          2.16670707e-03, 9.59230121e-04, 1.32452231e-03, 1.03119505e-03,
          1.02737162e-03, 2.09320080e-03, 1.60086493e-03, 1.60193536e-03,
          2.87385914e-03, 2.26779357e-02, 2.45370204e-03, 2.59426958e-03,
          1.70373486e-03, 1.66348054e-03, 1.28399278e-03, 1.03295094e-03,
          4.20968659e-04, 8.59004154e-04, 2.82665994e-03, 1.75966125e-03,
          1.95652014e-03, 1.45112758e-03, 2.04073335e-03, 1.14984415e-03,
          1.82303030e-03, 1.17119553e-03, 9.69802961e-04, 4.12742980e-03,
          7.86421471e-04, 1.47336419e-03, 4.30611544e-04, 1.47138629e-03,
          0., 0., 0., 0., 1.82950622e-04, 0., 0., 0., 0., 2.14842032e-03,
          1.50108489e-03, 2.19765992e-04, 7.27089297e-04, 4.90049832e-03,
          1.97999529e-03, 2.15711049e-03, 1.54403597e-03, 3.73504404e-03,
          0., 0., 0., 0., 3.16487596e-04, 0., 0., 0., 0., 0., 0., 0., 0.,
          0., 0., 0., 0., 0., 0., 0., 0., 0., 0., 0., 0., 0., 0., 0., 0.,
          0., 0., 0., 0., 0., 0., 0., 0., 0., 0., 0., 0., 0., 0., 0., 0.,
          0., 0., 0., 0., 0., 0., 0., 0., 0., 0., 0., 0., 0., 0., 0., 0.,
          0., 0., 0., 0., 0., 0., 0., 0., 0., 0., 0., 0., 0., 0., 0., 0.,
          0., 0., 0., 0., 1.51788890e-06, 2.93638550e-06, 0.,
          2.05064516e-05, 1.42127194e-03, 1.03751088e-04, 1.86009231e-04,
          4.66023230e-05, 1.07932483e-05, 3.75348004e-03, 2.17362703e-03,
          6.04316767e-04, 4.29862586e-04, 5.51399915e-03, 2.04466423e-03,
          2.79124896e-03, 1.65587990e-03, 2.29803333e-03, 2.78081370e-05,
          3.01627715e-05, 1.65518657e-06, 3.52475558e-06, 4.09700326e-04,
          2.23357347e-05, 4.08765554e-05, 2.80475433e-05, 2.51780912e-05,
          1.49667333e-03, 1.02188706e-03, 2.00118840e-04, 5.28713354e-05,
          2.27947766e-03, 4.23161226e-04, 6.70839625e-04, 9.57779994e-04,
          1.87244581e-03, 3.61091015e-03, 2.28809635e-03, 8.31322977e-04,
          2.09532518e-04, 2.17423099e-03, 1.14086934e-03, 1.07891450e-03,
          1.12216780e-03, 2.91257398e-03, 4.19660937e-03, 2.19869171e-03,
          1.83667766e-03, 5.86025650e-04, 2.08723955e-02, 3.83294234e-03,
          2.17204355e-03, 2.75482936e-03, 4.19660937e-03, 1.22856826e-03,
          8.91404052e-04, 4.84025688e-04, 9.61207115e-05, 1.29741395e-03,
          2.82081630e-04, 3.93361464e-04, 7.47596496e-04, 1.19753752e-03,
          2.60702777e-03, 1.39952300e-03, 2.62132240e-03, 8.56416416e-04,
          2.10977644e-02, 5.28965658e-03, 4.42902092e-03, 1.71648047e-03,
          1.89846754e-03, 4.07913420e-03, 1.51013071e-03, 1.56534184e-03,
          1.95302267e-03, 3.30224931e-02, 3.69830523e-03, 2.03098217e-03,
          3.02368915e-03, 3.46627180e-03, 1.59894526e-02, 4.31011152e-03,
          5.04290545e-03, 6.43218029e-03, -3.80794555e-02,
          1.42792128e-02, 1.15338648e-02, 2.25026868e-02, 1.52030336e-02,
          2.95504858e-03, 1.22952927e-03, 1.89984415e-03, 2.03264062e-03,
          3.57762054e-02, 5.18915523e-03, 4.25890042e-03, 2.09891680e-03,
          2.28537642e-03, 2.54694428e-02, 4.32571955e-03, 5.31858392e-03,
          9.80247278e-03, -3.22640687e-02, 1.42288515e-02,
          1.68126673e-02, 2.44098268e-02, 2.34009009e-02, 1.31666400e-02,
          2.31279666e-03, 4.45809541e-03, -1.40161114e-03,
          -2.20928737e-03, 6.05856813e-03, 7.66469259e-03,
          1.54871987e-02, 9.42002423e-03, 1.30428346e-02, 1.71705475e-03,
          6.24534069e-03, -9.74861812e-03, -3.04640643e-02,
          -6.71613542e-03, -7.55732087e-03, -6.50130492e-03,
          -4.50364221e-03, 1.90852284e-02, 2.98960437e-03,
          2.48548482e-03, 1.54896954e-03, -8.52761965e-04,
          9.18532908e-03, 1.14813354e-02, 1.84582993e-02, 1.00272698e-02,
          1.47438375e-02, 4.27825656e-03, 1.18826865e-03,
          -9.42155067e-03, -3.20946313e-02, 4.80546243e-03,
          6.86545915e-04, 4.38779080e-03, 5.27581153e-03, 2.70494279e-02,
          9.01582651e-03, 1.09541491e-02, -2.94141192e-03,
          -7.28803314e-03, -8.49734712e-03, -1.33277718e-02,
          -9.98370908e-03, -5.14275348e-03, 2.45367642e-02,
          7.13401055e-03, 8.30700528e-03, -1.79844291e-03,
          -1.31537570e-02, -1.53708598e-02, -1.42524885e-02,
          -1.68060400e-02, -4.02048510e-03, 1.48866810e-02,
          1.02452813e-02, 7.62703689e-03, -8.50773416e-03,
          -1.65427628e-03, 3.35592893e-03, 3.63930850e-03,
          1.14084799e-02, 4.98717232e-03, 5.85935777e-03, 4.89963405e-03,
          9.82366689e-03, -8.70717689e-03, -6.17806986e-03,
          -4.37044771e-03, -7.10003031e-03, -1.23629337e-02,
          -1.59985537e-03, 2.59678923e-02, 1.17892120e-02,
          1.17199300e-02, 6.86727883e-03, 4.66833729e-03,
          -1.06875552e-02, -1.35302758e-02, -1.85336191e-02,
          -1.18631283e-02, -3.51240044e-03, 1.65236816e-02,
          1.56797003e-02, 8.49926099e-03, 9.40450653e-03,
          -1.19851844e-03, -2.34978786e-03, -9.99949407e-03,
          -1.82130802e-02, -1.41608971e-03, 1.09423399e-02,
          2.04047691e-02, 3.00642685e-03, -9.30474978e-03,
          -9.03909747e-03, -1.16063487e-02, -1.81656536e-02,
          -2.53188796e-02, -9.34906490e-03, 1.84295904e-02,
          2.20517609e-02, 1.49645461e-02, 2.46948153e-02, 1.64293742e-03,
          4.54290397e-03, -1.09447504e-03, -1.74941700e-02,
          -6.00275304e-03, 1.26744499e-02, 8.10306985e-03,
          3.31634330e-03, 3.87777807e-03, 2.76377861e-04, 1.51478802e-03,
          -9.44897765e-05, -1.75638348e-02, -1.24765970e-02,
          3.76622798e-03, -1.74890216e-02, -9.91065055e-03,
          -1.15074385e-02, -6.46542665e-03, -1.34718267e-03,
          3.06878192e-03, -6.88556209e-03, -7.50380103e-03,
          1.61556825e-02, 1.47959534e-02, 1.06160045e-02, 2.26857867e-02,
          5.11356303e-03, 1.12478463e-02, 1.46799805e-02,
          -1.40572712e-02, -6.66030031e-03, 1.56459231e-02,
          4.31806222e-03, 5.91330836e-03, 2.55645029e-02, 5.09839179e-03,
          1.32561158e-02, 1.57962926e-02, -6.93552475e-03,
          -1.67495431e-03, -6.82826561e-04, -2.05142070e-02,
          -1.28248399e-02, -8.87313113e-03, -5.28469728e-03,
          -2.20813742e-03, 7.68698985e-03, 1.03183407e-02,
          2.01844461e-02, 1.71622878e-03, -1.23202335e-02,
          -1.66881178e-02, -8.84228852e-03, -1.33419188e-03,
          2.46978668e-03, 1.35612655e-02, 2.89534181e-02, 3.05145886e-03,
          1.42353745e-02, 4.23046388e-03, 7.42241461e-03, 1.49850287e-02,
          7.32494192e-03, 4.20282548e-03, 1.33792795e-02, 1.05890969e-03,
          8.48068763e-03, 8.86863656e-03, -6.66504353e-03,
          -8.63211881e-03, 4.03536716e-04, -4.86294553e-03,
          -6.38232008e-03, 9.22813267e-03, 1.08737210e-02,
          2.58664861e-02, -2.84937001e-03, -1.52545869e-02,
          -2.03057863e-02, -7.77790975e-03, -3.50122573e-03,
          4.80199140e-03, 1.42781138e-02, 3.00467275e-02, 2.78560333e-02,
          4.47970256e-03, 2.29815394e-03, -4.89321956e-03,
          -3.11195711e-03, 5.03288023e-03, 8.31632502e-03,
          1.21900765e-02, 2.99318135e-02, 7.73453852e-03, 7.45391427e-03,
          -8.14607181e-03, -1.70210935e-02, 2.17022534e-04,
          -9.08838026e-03, -1.08010117e-02, 5.02085453e-03,
          2.36578193e-03, 3.37247225e-03, 1.05318455e-02, 8.61998461e-03,
          2.36166408e-03, 5.01806103e-03, 4.37250535e-04,
          -2.34782835e-03, -4.96140099e-04, -1.36717223e-03,
          2.66072825e-02, 2.18577962e-03, 6.43775845e-03,
          -4.87756042e-04, -3.96207981e-02, 6.29950687e-03,
          8.88968818e-03, 1.07515808e-02, 2.49254163e-02, 1.24670807e-02,
          2.85451487e-03, 4.04079584e-03, 4.32475423e-03,
          -2.51126103e-03, 1.18661597e-02, 1.00000035e-02,
          1.11360690e-02, 1.48003278e-02, -2.24577170e-03,
          3.09271738e-03, 4.87327809e-03, 6.12954143e-03,
          -3.55340689e-02, -3.46675701e-03, -6.91110315e-03,
          -9.10404895e-04, -3.33654927e-03, -3.04522482e-03,
          2.25256942e-03, 3.43195908e-03, 8.76148231e-03,
          -2.74907262e-03, 6.45429548e-03, 5.61460946e-03,
          6.70902012e-03, 6.01367792e-03, 5.47075644e-03, 3.18780588e-03,
          1.94755918e-03, 6.26447797e-03, -9.23670921e-03,
          9.37854405e-03, 5.66602917e-03, 5.59126725e-03, 6.86708232e-03,
          3.81118944e-03, 3.52662685e-03, 2.35094945e-03, 4.36947029e-03,
          2.47652438e-02, 3.25682038e-03, 2.73127900e-03, 1.19082013e-03,
          2.73972284e-03, 6.67326199e-03, 1.55339867e-03, 9.99185140e-04,
          5.14969276e-03, -2.90960521e-02, 9.24951117e-03,
          6.38464047e-03, 5.67664718e-03, 7.57905189e-03, 2.77486187e-03,
          1.26004510e-03, 8.10503610e-04, 3.08000436e-03, 2.79345196e-02,
          2.85720336e-03, 2.13788217e-03, 1.41511578e-03, 2.84333690e-03,
          3.19640920e-03, 2.11168732e-03, 1.70825538e-03, 2.81352736e-03,
          1.77402124e-02, 2.52444949e-03, 2.11773650e-03, 1.39926467e-03,
          1.87281182e-03, 2.36328761e-03, 1.22350850e-03, 7.23163190e-04,
          1.30924466e-03, 3.40236351e-03, 2.11760495e-03, 2.46840203e-03,
          2.39006523e-03, 2.93040252e-03, 1.41218258e-03, 8.73098557e-04,
          6.97820913e-04, 1.93934585e-03, 2.50882525e-02, 8.47904652e-04,
          4.84306802e-04, 4.72606160e-04, 8.16372863e-04, 1.22458779e-03,
          5.69766271e-04, 5.04489930e-04, 4.35040623e-04, 1.37899036e-03,
          4.94120759e-04, 6.37254154e-04, 7.48404069e-04, 8.01491260e-04,
          2.31049443e-03, 6.89814333e-04, 4.15161980e-04, 8.77057260e-04,
          5.82317729e-03, 1.97899970e-03, 2.45057303e-03, 2.77247303e-03,
          4.03099926e-03, 0., 0., 0., 0., 3.69410380e-04, 0., 0., 0., 0.,
          1.06087758e-03, 3.93634691e-04, 5.63954061e-04, 4.37664712e-04,
          2.56360299e-03, 4.55907197e-04, 8.30744044e-04, 9.80655896e-04,
          8.03347386e-04, 0., 0., 0., 0., 1.55703921e-04, 0., 0., 0., 0.,
          0., 0., 0., 0., 0., 0., 0., 0., 0., 0., 0., 0., 0., 0., 0., 0.,
          0., 0., 0., 0., 0., 0., 0., 0., 0., 0., 0., 0., 0., 0., 0., 0.,
          0., 0., 0., 0., 0., 0., 0., 0., 0., 0., 0., 0., 0., 0., 0., 0.,
          0., 0., 0., 0., 0., 0., 0., 0., 0., 0., 0., 0., 0., 0., 0., 0.,
          0., 0., 0., 0., 0., 0., 0., 0., 2.70893615e-05, 2.88015326e-05,
          3.54566473e-05, 4.42710152e-05, 8.16955173e-04, 5.08592238e-05,
          0., 1.26195630e-06, 1.24372546e-05, 1.00365898e-03,
          8.63945636e-04, 6.59300131e-04, 7.87814031e-04, 4.77055786e-03,
          9.95719107e-04, 2.06933139e-04, 9.11201409e-04, 1.36459584e-03,
          1.00982027e-06, 1.51376105e-06, 4.91765459e-05, 6.37843041e-05,
          1.41710753e-03, 8.40891153e-05, 2.16433709e-05, 0., 0.,
          6.67320448e-04, 1.23451196e-03, 1.59724266e-03, 1.49724085e-03,
          6.51924964e-03, 1.55891431e-03, 8.60959641e-04, 8.12785409e-04,
          6.32353011e-04, 9.05537279e-04, 1.01512892e-03, 8.38127919e-04,
          6.85116393e-04, 2.63741845e-03, 5.69067372e-04, 3.91490903e-04,
          1.54867512e-03, 1.25051162e-03, 1.61747180e-03, 2.46534077e-03,
          5.91813680e-03, 3.20382672e-03, 2.21681762e-02, 3.73290200e-03,
          2.36474304e-03, 1.96809415e-03, 1.65039615e-03, 9.51286172e-04,
          1.76762335e-03, 1.78673537e-03, 1.56855525e-03, 3.94974090e-03,
          1.14147714e-03, 8.24386952e-04, 1.65345473e-03, 1.19133072e-03,
          1.80160813e-03, 2.57105497e-03, 4.00957000e-03, 3.38238804e-03,
          2.25434210e-02, 4.26573679e-03, 2.12501804e-03, 2.10167957e-03,
          3.31985787e-03, 2.81371898e-03, 2.43341667e-03, 4.32113837e-03,
          3.23985261e-03, 3.29957195e-02, 3.59668117e-03, 2.50115874e-03,
          2.44315690e-03, 2.82755168e-03, 1.51466299e-02, 4.71528852e-03,
          8.62343889e-03, 1.70162320e-02, -2.45353207e-02,
          1.62857119e-02, 8.71810317e-03, 1.12549979e-02, 1.42432405e-02,
          3.39982519e-03, 3.28778871e-03, 3.19966278e-03, 2.67289742e-03,
          3.70907448e-02, 3.80549580e-03, 1.82376557e-03, 1.57459604e-03,
          4.15862678e-03, 1.52294785e-02, 7.97590520e-03, 9.48805735e-03,
          2.26224046e-02, -3.49037610e-02, 1.49929980e-02,
          5.17683011e-03, 6.84834970e-03, 1.20782088e-02, 1.35429967e-02,
          3.64272762e-03, 3.22465412e-03, 3.72400484e-03, 1.09389506e-03,
          7.41032884e-03, 6.68440806e-03, 1.19182859e-02, 8.47880729e-03,
          3.42832995e-03, 4.32735914e-03, 1.03997276e-03,
          -1.10395886e-02, -2.16134433e-02, 6.68421201e-03,
          2.87732342e-03, 7.25010782e-03, -4.56081796e-03,
          5.16870245e-03, 2.86490400e-03, 5.35390014e-03, 7.95102399e-03,
          -6.50902372e-03, 1.07340850e-02, 7.72958156e-03,
          8.81493464e-03, 5.61150676e-03, 1.52678473e-03, 6.86140079e-03,
          1.24071706e-02, -7.75341396e-05, -2.72932444e-02,
          1.42587796e-02, 5.45278983e-03, 3.59798898e-03,
          -6.15979126e-03, 3.56506789e-04, 4.92517697e-03,
          1.95577764e-03, -1.18416389e-02, -1.02523901e-03,
          8.43312778e-03, 6.27731252e-03, -2.02648132e-03,
          -8.70220643e-03, -9.96834878e-03, -5.35752811e-03,
          -5.69615921e-04, -5.76994941e-03, 1.86974055e-03,
          1.48431398e-02, 1.44741628e-02, 3.90532683e-03,
          -1.37963882e-02, -1.70695805e-03, 4.78479313e-03,
          5.49521018e-03, -1.83243689e-03, 1.91338724e-04,
          1.34974485e-02, 9.14600864e-03, -6.73467712e-03,
          -8.53891484e-03, -5.05657960e-03, -5.76914195e-03,
          1.26818381e-03, 6.33379025e-03, 1.55873364e-02, 1.62748955e-02,
          2.56849770e-02, 7.58974487e-03, -5.28882444e-03,
          -2.53324490e-02, -5.41025074e-03, 9.90087353e-03,
          4.54657059e-03, 2.88994843e-03, 1.22096520e-02, 9.57193598e-03,
          3.49512021e-03, -3.21555324e-02, -3.34111303e-02,
          6.32340740e-03, 1.83580797e-02, 1.31634660e-02, 1.26410890e-02,
          1.41070960e-02, 5.31709893e-03, 2.43690261e-03,
          -3.56275216e-02, -7.90935848e-03, 1.76625047e-03,
          1.04000513e-02, 1.17714833e-02, 2.02798080e-02, 2.24347468e-02,
          2.70739794e-02, 1.40562197e-02, -8.29007570e-03,
          -1.94467064e-02, 1.68681741e-02, 1.73228029e-02,
          1.10122142e-02, 2.54616160e-02, 2.47550216e-02, 2.32335627e-02,
          9.61542223e-03, -1.07466681e-02, -3.34013663e-02,
          5.12055261e-03, 1.16244759e-02, 1.07639236e-02, 1.92917138e-02,
          1.11229056e-02, 2.19750497e-03, 9.23114538e-04,
          -3.68526392e-02, -2.39634253e-02, 8.82265437e-03,
          9.18836612e-03, 1.24306679e-02, 3.18236537e-02, 1.07383486e-02,
          6.35618344e-03, 4.11354937e-04, -2.68948916e-02,
          -8.25567730e-03, 1.23117669e-02, 1.49149476e-02,
          1.05388518e-02, 2.88497917e-02, 1.74228549e-02, 1.36216246e-02,
          -6.40368962e-04, -1.31943170e-02, 3.11020995e-03,
          1.12360166e-02, 1.68770906e-02, 1.36835687e-02, 2.66557876e-02,
          1.88692845e-02, 2.12970818e-03, -6.47862023e-03,
          -1.13759497e-02, -1.12661272e-02, 5.63185196e-03,
          9.75866616e-03, 7.39831664e-03, 1.85742341e-02, 8.30816478e-03,
          1.63990969e-03, 3.75168491e-03, -1.20442826e-02,
          -2.14336906e-03, -5.78693696e-04, -4.13151039e-03,
          -8.62418208e-03, -4.21324838e-03, -5.39534865e-03,
          -9.24120657e-03, 2.30231299e-03, 4.40296764e-03,
          1.15347421e-02, 1.66635960e-02, 1.52796321e-02, 3.97179974e-03,
          1.70262642e-02, 4.00415063e-03, -2.36585643e-03,
          -5.77544840e-03, -1.27641368e-03, 7.19057955e-03,
          7.14115752e-03, -3.21224332e-03, -1.48822516e-02,
          -3.02923494e-04, -4.19959612e-03, -4.16539935e-03,
          7.64537090e-03, 3.67656024e-03, -1.08868943e-03,
          8.74835253e-03, -5.86942164e-03, -7.71214301e-03,
          -4.06088121e-03, -8.51686206e-03, -1.84123199e-02,
          -7.51114730e-03, -3.54277273e-03, -2.84875823e-05,
          1.36498511e-02, 5.31550217e-03, 9.13504697e-03, 1.24954963e-02,
          1.14519564e-04, -1.63314566e-02, -1.00547597e-02,
          -1.15609523e-02, 1.54531775e-02, 1.32522974e-02,
          -4.82764980e-03, -7.82273617e-03, -3.66338203e-03,
          -7.17065111e-03, -1.04976697e-02, 7.81912729e-03,
          1.52618093e-02, 1.78505387e-02, 2.51348335e-02, 1.94695126e-03,
          4.12943959e-03, 7.96132023e-04, -2.21512257e-03,
          -8.57066736e-03, 9.44520999e-03, 9.90800932e-03,
          -1.52814537e-02, 2.57930509e-03, 2.26998911e-03,
          1.20987380e-02, -2.91357376e-02, 1.64183404e-03,
          -1.55942375e-02, -7.39982538e-03, -1.90136041e-02,
          2.21128197e-04, 2.13547400e-03, 1.36932090e-03, 1.07189566e-02,
          1.24372938e-03, 4.11568861e-03, -1.15012971e-03,
          7.92548526e-05, 6.91706955e-04, 6.92268787e-03, 1.28439479e-02,
          6.05967501e-03, 1.24982968e-02, -2.78181229e-02,
          8.18351808e-04, -1.50191477e-02, 7.69315939e-03,
          6.84250263e-04, 7.06254877e-03, 4.50790301e-03, 2.57788436e-03,
          1.04078110e-02, -5.84322494e-04, 3.11177946e-03,
          2.62022018e-04, 1.38683466e-03, 6.70171669e-03, 7.17740320e-03,
          2.46492005e-03, 1.41367421e-03, 3.70765338e-03,
          -1.87451150e-02, 5.58756944e-03, 3.86490487e-03,
          3.18294019e-03, 4.71436372e-03, 3.31508834e-03, 1.45954394e-03,
          1.24051096e-03, 1.75125408e-03, 2.59542428e-02, 2.59107980e-03,
          2.41522561e-03, 2.32347636e-03, 2.90800468e-03, 1.02189016e-02,
          3.87027860e-03, 1.82000559e-03, 2.66951905e-03,
          -1.73165388e-02, 5.29999845e-03, 4.49477974e-03,
          3.31710489e-03, 6.22892799e-03, 4.13609715e-03, 2.29370384e-03,
          1.57803518e-03, 1.24152401e-03, 2.80460920e-02, 5.27886860e-03,
          3.72147444e-03, 2.70694843e-03, 3.54663283e-03, 2.54545151e-03,
          1.44407514e-03, 1.17805647e-03, 1.90991897e-03, 2.19574329e-02,
          1.64838682e-03, 1.33606640e-03, 1.26159773e-03, 2.17965990e-03,
          2.60027125e-03, 1.33644231e-03, 1.12158607e-03, 6.53376745e-04,
          2.03727139e-03, 8.81893095e-04, 6.98846707e-04, 5.40165987e-04,
          1.00336690e-03, 2.18035304e-03, 1.69917534e-03, 1.40442885e-03,
          1.69644668e-03, 2.44042221e-02, 4.27966844e-03, 3.36421258e-03,
          1.67608738e-03, 2.09404319e-03, 3.08769476e-03, 1.30344694e-03,
          8.75626516e-04, 6.74566138e-04, 2.43447418e-03, 9.69506218e-04,
          1.09666190e-03, 6.29009388e-04, 1.16099638e-03, 3.37877171e-03,
          1.36235531e-03, 1.47191342e-03, 5.31980593e-04, 4.77985991e-03,
          7.60272262e-04, 6.65219617e-04, 7.82125222e-04, 8.98884609e-04,
          0., 0., 0., 0., 3.04158748e-04, 0., 0., 0., 0., 4.45341086e-03,
          1.33830425e-03, 1.11028960e-03, 3.71212052e-04, 4.26307414e-03,
          7.69804406e-04, 6.24594977e-04, 6.28030626e-04, 9.82739846e-04,
          0., 0., 0., 0., 2.39354631e-04, 0., 0., 0., 0., 0., 0., 0., 0.,
          0., 0., 0., 0., 0., 0., 0., 0., 0., 0., 0., 0., 0., 0., 0., 0.,
          0., 0., 0., 0., 0., 0., 0., 0., 0., 0., 0., 0., 0., 0., 0., 0. ]
   uncompressed_sv_total: 17
   uncompressed_support_vectors:
      - [ 0., 0., 0., 0., 0., 0., 0., 0., 0., 0., 0., 0., 0., 0., 0., 0.,
          0., 0., 0., 0., 0., 0., 0., 0., 0., 0., 0., 0., 0., 0., 0., 0.,
          0., 0., 0., 0., 0., 0., 0., 0., 0., 0., 0., 0., 0., 0., 0., 0.,
          0., 0., 0., 0., 0., 0., 0., 0., 0., 0., 0., 0., 0., 0., 0., 0.,
          0., 0., 0., 0., 0., 0., 0., 0., 0., 0., 0., 0., 0., 0., 0., 0.,
          0., 0., 0., 0., 0., 0., 0., 0., 0., 0., 0., 0., 0., 0., 0., 0.,
          0., 0., 0., 0., 0., 0., 0., 0., 0., 0., 0., 0., 0., 0., 0., 0.,
          0., 0., 0., 0., 0., 0., 0., 0., 0., 7.65231371e-01, 0., 0., 0.,
          0., 0., 0., 0., 0., 0., 0., 0., 0., 0., 0., 0., 0., 0.,
          6.37795627e-01, 0., 0., 0., 0., 3.16368677e-02, 3.96507755e-02,
          1.77904725e-01, 2.26878583e-01, 3.33034962e-01, 2.65530217e-02,
          2.69646700e-02, 1.35142263e-02, 1.05046235e-01, 8.73544738e-02,
          2.11590901e-01, 3.33034962e-01, 3.33034962e-01, 3.33034962e-01,
          1.23817675e-01, 9.32945311e-02, 3.33063826e-02, 1.40535623e-01,
          3.98734473e-02, 2.52277609e-02, 6.69926181e-02, 8.53505582e-02,
          2.86825329e-01, 2.01834347e-02, 1.20450594e-02, 2.63239909e-02,
          1.09771132e-01, 5.47487959e-02, 3.93270440e-02, 1.69765040e-01,
          1.97415754e-01, 3.33034962e-01, 1.74965426e-01, 9.65291932e-02,
          4.54770923e-02, 1.50231883e-01, 2.87937727e-02, 1.25566259e-01,
          3.33783954e-01, 3.21541071e-01, 1.24269292e-01, 1.68390349e-01,
          1.42418280e-01, 2.10451484e-02, 2.50299927e-02, 1.19799068e-02,
          1.48895951e-02, 4.91652936e-02, 3.85035798e-02, 6.38582259e-02,
          1.59778535e-01, 9.61392224e-02, 1.17697613e-02, 9.87390894e-03,
          5.55407144e-02, 6.58067688e-02, 1.83634937e-01, 6.81127310e-02,
          1.66746244e-01, 2.90882468e-01, 1.24513589e-01, 2.96041481e-02,
          5.61272278e-02, 3.01186711e-01, 1.94166735e-01, 3.33783954e-01,
          9.96851027e-02, 1.72585264e-01, 2.36755967e-01, 6.15721159e-02,
          1.68043748e-01, 3.33783954e-01, 3.71017940e-02, 7.31391832e-03,
          1.92991886e-02, 9.10920557e-03, 1.80508029e-02, 3.29883620e-02,
          1.12941992e-02, 6.82261633e-03, 4.17325944e-02, 1.15505971e-01,
          1.43629853e-02, 2.56135520e-02, 1.15832034e-02, 7.32505089e-03,
          7.50243105e-03, 3.61607037e-03, 1.08661344e-02, 1.19849905e-01,
          3.49977791e-01, 1.09267272e-01, 4.05171245e-01, 8.82803574e-02,
          6.56593964e-02, 3.62765566e-02, 9.80584323e-03, 1.47618681e-01,
          4.05171245e-01, 4.05171245e-01, 8.04898739e-02, 3.13139230e-01,
          5.59899695e-02, 8.83007199e-02, 7.79589312e-03, 3.82547267e-03,
          1.40943423e-01, 4.05171245e-01, 1.03486173e-01, 2.22111475e-02,
          1.80279966e-02, 1.01476684e-02, 1.85275543e-03, 1.93113345e-03,
          1.53431715e-03, 5.36025316e-03, 1.22777738e-01, 9.15689543e-02,
          2.66949199e-02, 1.77838989e-02, 6.03311369e-03, 1.10861368e-03,
          7.18634110e-03, 1.07020736e-02, 9.03200544e-03, 1.14648774e-01,
          4.14953381e-01, 7.72791803e-02, 2.68726628e-02, 1.06232036e-02,
          7.79274777e-02, 1.02660526e-02, 9.99705587e-03, 5.60027361e-02,
          4.14953381e-01, 4.14953381e-01, 1.94303215e-01, 2.20993124e-02,
          5.74075244e-03, 4.14291508e-02, 1.21496096e-01, 2.70567209e-01,
          3.36662889e-01, 4.14953381e-01, 8.33925977e-02, 3.23444717e-02,
          1.93121713e-02, 1.61310635e-03, 1.00907451e-03, 8.33776500e-03,
          1.62737444e-02, 1.16299530e-02, 7.88826793e-02, 4.34194393e-02,
          2.75729131e-02, 1.18863089e-02, 2.03671370e-04, 8.57093139e-04,
          0., 6.77269709e-04, 6.63791876e-03, 3.32728177e-02,
          3.65618914e-01, 1.90293282e-01, 6.19285926e-02, 3.15018115e-03,
          1.41405258e-02, 2.09912941e-01, 3.65618914e-01, 3.65618914e-01,
          3.65618914e-01, 1.22170784e-01, 2.68904101e-02, 3.48324776e-02,
          4.99170506e-03, 1.30438497e-02, 7.60425106e-02, 3.65618914e-01,
          3.10977936e-01, 3.24169874e-01, 4.44804654e-02, 2.23048553e-02,
          7.55198300e-03, 0., 9.31673741e-04, 2.54121056e-04,
          1.17683422e-03, 1.14574647e-02, 4.39363122e-02, 3.41896527e-02,
          4.60235216e-02, 1.38770655e-01, 3.93278450e-01, 4.32374209e-01,
          5.15260324e-02, 2.71855444e-02, 1.75827350e-02, 3.74561585e-02,
          6.83109239e-02, 1.56693161e-02, 1.46472892e-02, 2.16239388e-03,
          8.46687052e-03, 2.14869212e-02, 7.53472298e-02, 5.97235933e-02,
          1.07276611e-01, 3.20421755e-02, 2.36434694e-02, 4.32374209e-01,
          4.32374209e-01, 4.32374209e-01, 1.32916510e-01, 9.53725129e-02,
          5.40846586e-02, 5.73173165e-02, 6.42332947e-03, 3.69226448e-02,
          1.17731072e-01, 3.21815044e-01, 3.51859629e-01, 4.18982171e-02,
          3.26361172e-02, 8.12680926e-03, 8.41812231e-03, 3.05161928e-03,
          2.58663055e-02, 5.42652979e-02, 1.43049404e-01, 3.51859629e-01,
          2.35652160e-02, 2.46059876e-02, 4.83785151e-03, 4.65796795e-03,
          1.84718240e-03, 1.40070394e-02, 3.51859629e-01, 3.51859629e-01,
          3.51859629e-01, 1.26785189e-01, 1.20320722e-01, 3.08680143e-02,
          6.19316660e-03, 4.77185269e-04, 6.09389879e-03, 1.20048478e-01,
          2.09704548e-01, 3.51859629e-01, 8.70759189e-02, 9.15504470e-02,
          2.09321119e-02, 2.10840441e-03, 0., 0., 0., 0., 7.04615593e-01,
          0., 0., 0., 0., 0., 0., 0., 0., 0., 0., 0., 0., 0., 0., 0., 0.,
          0., 7.04615593e-01, 0., 0., 0., 0., 0., 0., 0., 0., 0., 0., 0.,
          0., 0., 0., 0., 0., 0., 0., 0., 0., 0., 0., 0., 0., 0., 0., 0.,
          0., 0., 0., 0., 0., 0., 0., 0., 0., 0., 0., 0., 0., 0., 0., 0.,
          0., 0., 0., 0., 0., 0., 0., 0., 0., 0., 0., 0., 0., 0., 0., 0.,
          0., 0., 0., 0., 0., 0., 0., 0., 0., 0., 0., 0., 0., 0., 0., 0.,
          0., 0., 0., 0., 0., 0., 0., 0., 0., 0., 0., 0., 0., 0., 0., 0.,
          0., 0., 0., 0., 0., 0., 0., 0., 0., 0., 0., 0., 0., 0., 0., 0.,
          0., 0., 0., 0., 0., 0., 0., 0., 0., 0., 0., 0., 0., 0., 0., 0.,
          0., 0., 0., 0., 0., 0., 0., 0., 0., 0., 0., 0., 0., 0., 0., 0.,
          0., 0., 0., 0., 0., 0., 0., 0., 0., 0., 0., 0., 0., 0., 0., 0.,
          0., 0., 0., 0., 0., 0., 0., 0., 0., 0., 0., 0., 0., 0., 0., 0.,
          0., 0., 0., 0., 0., 0., 0., 0., 0., 0., 0., 0., 0., 0., 0., 0.,
          0., 0., 0., 0., 0., 0., 0., 0., 0., 0., 0., 0., 0., 0., 0., 0.,
          0., 0., 0., 0., 0., 0., 0., 0., 0., 0., 0., 0., 0., 0., 0., 0.,
          0., 0., 0., 0., 0., 0., 0., 0., 0., 0., 0., 0., 0., 0., 0., 0.,
          0., 0., 0., 0., 0., 0., 0., 6.59397066e-01, 0., 0., 0., 0., 0.,
          0., 0., 0., 0., 0., 0., 0., 0., 0., 0., 0., 0., 7.46820867e-01,
          0., 0., 0., 0., 4.43470851e-02, 2.77498215e-02, 3.52099794e-03,
          1.36211151e-02, 3.14822614e-01, 3.99670936e-02, 4.24347147e-02,
          1.30559606e-02, 9.22480877e-03, 5.85342422e-02, 1.15048110e-01,
          1.30978718e-01, 4.74265963e-02, 3.46687168e-01, 1.51148826e-01,
          1.09924845e-01, 3.04510966e-02, 1.79369021e-02, 1.58005990e-02,
          1.26860365e-02, 8.56298301e-03, 9.83652622e-02, 3.46687168e-01,
          9.43124443e-02, 4.20912430e-02, 5.76693099e-03, 1.49407715e-03,
          9.50712934e-02, 3.46687168e-01, 3.46687168e-01, 2.11702779e-01,
          3.46687168e-01, 3.46687168e-01, 1.10588036e-01, 9.20154005e-02,
          4.49698195e-02, 4.64657657e-02, 1.71513095e-01, 2.71427393e-01,
          2.24842690e-02, 9.19268355e-02, 5.37324697e-02, 1.66293811e-02,
          2.33612340e-02, 2.26576999e-02, 1.50725827e-01, 2.40802765e-01,
          2.88065046e-01, 6.75565228e-02, 9.72409993e-02, 2.75697913e-02,
          2.38359789e-03, 1.03239387e-01, 2.75240779e-01, 7.98574239e-02,
          2.88065046e-01, 2.88065046e-01, 1.19361803e-01, 1.88496232e-01,
          1.10223345e-01, 3.29897776e-02, 6.94814995e-02, 6.84935600e-02,
          2.18606532e-01, 2.88065046e-01, 2.88065046e-01, 1.84049323e-01,
          1.48642078e-01, 7.34421015e-02, 5.86571395e-02, 8.59984830e-02,
          2.88065046e-01, 2.21876770e-01, 1.30418658e-01, 2.95179546e-01,
          7.49678835e-02, 1.42091900e-01, 5.43238921e-03, 1.11560291e-03,
          1.16293654e-01, 2.95179546e-01, 2.95179546e-01, 7.50454590e-02,
          1.87860519e-01, 3.98321114e-02, 2.84054786e-01, 5.20702498e-03,
          1.36690156e-03, 7.31542259e-02, 2.95179546e-01, 1.71953276e-01,
          7.15002641e-02, 1.73140511e-01, 8.07209164e-02, 1.78935274e-01,
          6.67036027e-02, 3.76387574e-02, 3.55892144e-02, 2.70078063e-01,
          2.43782416e-01, 3.18697616e-02, 7.50209987e-02, 4.78305779e-02,
          2.95179546e-01, 5.95549345e-02, 6.62741810e-02, 6.29187375e-02,
          2.52366394e-01, 3.06939930e-01, 3.79028060e-02, 1.88881475e-02,
          1.67808458e-02, 3.06939930e-01, 8.80834553e-03, 7.70228170e-03,
          3.59941386e-02, 3.06939930e-01, 3.06939930e-01, 1.02955803e-01,
          2.08565332e-02, 1.34786060e-02, 1.37600407e-01, 5.91016151e-02,
          1.88459858e-01, 3.06939930e-01, 3.06939930e-01, 2.68966705e-01,
          1.64497495e-02, 5.04733846e-02, 4.77548502e-02, 3.06939930e-01,
          4.74989563e-02, 8.61107260e-02, 1.02085508e-01, 2.59634942e-01,
          1.50541201e-01, 8.27289652e-03, 2.06277315e-02, 2.98057683e-02,
          1.85676888e-01, 2.13492960e-02, 5.26740886e-02, 1.10140853e-01,
          1.61099359e-01, 1.77846938e-01, 5.74192107e-02, 2.98367385e-02,
          1.55166909e-02, 5.55911139e-02, 6.46272004e-02, 2.76811451e-01,
          2.76811451e-01, 2.76811451e-01, 5.84275052e-02, 6.10560505e-03,
          3.55864763e-02, 6.28046021e-02, 6.57581985e-02, 5.75913377e-02,
          2.76811451e-01, 2.76811451e-01, 1.88195005e-01, 1.14784993e-01,
          8.42855405e-03, 1.23185208e-02, 3.53432670e-02, 1.89381868e-01,
          6.82108551e-02, 1.59119084e-01, 2.26038620e-01, 2.11212307e-01,
          1.15311228e-01, 4.93646972e-02, 1.02620520e-01, 2.40850165e-01,
          2.24649027e-01, 1.55054346e-01, 2.76811451e-01, 2.76811451e-01,
          1.75630182e-01, 3.15743759e-02, 1.70611986e-03, 1.78675465e-02,
          4.25486416e-02, 3.15949619e-02, 2.45319586e-02, 1.73459977e-01,
          8.66254494e-02, 4.90897521e-02, 9.46960226e-03, 3.57155199e-03,
          1.98353946e-01, 3.28609556e-01, 3.28609556e-01, 3.49331051e-02,
          3.21536958e-02, 2.34346893e-02, 1.45338485e-02, 1.51163787e-01,
          8.13468099e-02, 1.74312070e-01, 2.91057646e-01, 2.19599262e-01,
          1.24243632e-01, 3.28609556e-01, 1.61445603e-01, 6.25792369e-02,
          8.74192566e-02, 3.76289785e-02, 3.28609556e-01, 3.28609556e-01,
          3.28609556e-01, 6.83169141e-02, 8.17543194e-02, 4.94445115e-02,
          2.35822964e-02, 1.57775218e-03, 5.56936767e-03, 2.17257842e-01,
          3.46003890e-01, 3.99613440e-01, 5.17975055e-02, 3.73647921e-02,
          8.38395767e-03, 1.41845155e-03, 5.27192897e-04, 2.36369367e-03,
          4.28257696e-02, 6.78316057e-02, 3.99613440e-01, 3.24537009e-02,
          2.67597772e-02, 4.78038192e-03, 0., 1.06029576e-02,
          1.94151923e-02, 2.21532673e-01, 3.53668332e-01, 3.99613440e-01,
          3.43231149e-02, 6.81691943e-03, 4.37265914e-03, 2.19183578e-03,
          2.58845463e-03, 6.18971698e-03, 1.73011702e-02, 3.96204442e-02,
          3.99613440e-01, 9.68967285e-03, 1.57953892e-03, 8.37822881e-05,
          0., 0., 0., 0., 0., 7.04615593e-01, 0., 0., 0., 0., 0., 0., 0.,
          0., 0., 0., 0., 0., 0., 0., 0., 0., 0., 7.04615593e-01, 0., 0.,
          0., 0., 0., 0., 0., 0., 0., 0., 0., 0., 0., 0., 0., 0., 0., 0.,
          0., 0., 0., 0., 0., 0., 0., 0., 0., 0., 0., 0., 0., 0., 0., 0.,
          0., 0., 0., 0., 0., 0., 0., 0., 0., 0., 0., 0., 0., 0., 0., 0.,
          0., 0., 0., 0., 0., 0., 0., 0., 0., 0., 0., 0., 0., 0., 0., 0.,
          0., 0., 0., 0., 0., 0., 0., 0., 0., 0., 0., 0., 0., 0., 0., 0.,
          0., 0., 0., 0., 0., 0., 0., 0., 0., 0., 0., 0., 0., 0., 0., 0.,
          0., 0., 0., 0., 0., 0., 0., 0., 0., 0., 0., 0., 0., 0., 0., 0.,
          0., 0., 0., 0., 0., 0., 0., 0., 0., 0., 0., 0., 0., 0., 0., 0.,
          0., 0., 0., 0., 0., 0., 0., 0., 0., 0., 0., 0., 0., 0., 0., 0.,
          0., 0., 0., 0., 0., 0., 0., 0., 0., 0., 0., 0., 0., 0., 0., 0.,
          0., 0., 0., 0., 0., 0., 0., 0., 0., 0., 0., 0., 0., 0., 0., 0.,
          0., 0., 0., 0., 0., 0., 0., 0., 0., 0., 0., 0., 0., 0., 0., 0.,
          0., 0., 0., 0., 0., 0., 0., 0., 0., 0., 0., 0., 0., 0., 0., 0.,
          0., 0., 0., 0., 0., 0., 0., 0., 0., 0., 0., 0., 0., 0., 0., 0.,
          0., 0., 0., 0., 0., 0., 0., 0., 0., 0., 0., 0., 0., 0., 0., 0.,
          7.04615593e-01, 0., 0., 0., 0., 0., 0., 0., 0., 0., 0., 0., 0.,
          0., 0., 0., 0., 0., 7.04615593e-01, 0., 0., 0., 0.,
          1.48633122e-02, 5.31854946e-03, 8.68987385e-03, 7.95323774e-02,
          3.11616182e-01, 5.06640598e-02, 8.23042262e-03, 2.15215655e-03,
          1.44461440e-02, 1.21374048e-01, 2.50443459e-01, 2.45409325e-01,
          1.49335861e-01, 3.11616182e-01, 2.54000604e-01, 1.10480174e-01,
          8.00479129e-02, 8.72869566e-02, 3.29809226e-02, 4.35654260e-03,
          1.01203844e-02, 9.01698619e-02, 3.11616182e-01, 4.61552478e-02,
          6.18241690e-02, 3.33211534e-02, 6.26215786e-02, 1.84151128e-01,
          1.47842601e-01, 1.26533583e-01, 2.53414392e-01, 3.11616182e-01,
          2.02912331e-01, 2.32117146e-01, 1.46733314e-01, 2.74472594e-01,
          1.14276186e-01, 2.50759959e-01, 2.50759959e-01, 1.23835117e-01,
          2.50759959e-01, 1.67878881e-01, 1.24104239e-01, 1.06322095e-01,
          1.12798259e-01, 2.35407472e-01, 1.21214777e-01, 2.02936053e-01,
          2.48367891e-01, 2.50759959e-01, 1.40337572e-01, 1.74689353e-01,
          1.38240039e-01, 2.50759959e-01, 1.25578523e-01, 1.32289156e-01,
          1.17138103e-01, 1.00100130e-01, 2.50759959e-01, 1.12009421e-01,
          1.31989300e-01, 8.72334316e-02, 1.49105325e-01, 1.40783042e-01,
          1.79569349e-02, 4.65126969e-02, 7.73849487e-02, 2.50759959e-01,
          5.46562932e-02, 8.13525990e-02, 1.04304217e-01, 2.31132269e-01,
          1.48784563e-01, 8.27072747e-03, 4.56377976e-02, 1.15360998e-01,
          1.93708599e-01, 1.37457699e-01, 7.97683746e-02, 3.92630287e-02,
          2.36853927e-01, 9.17322412e-02, 3.79891545e-02, 1.82847187e-01,
          1.61820695e-01, 2.67324716e-01, 1.46054402e-01, 2.06739828e-01,
          1.32688448e-01, 1.27348259e-01, 1.53280035e-01, 4.63592215e-03,
          2.64466908e-02, 6.01406880e-02, 2.67324716e-01, 1.51486561e-01,
          4.56278138e-02, 7.37302154e-02, 2.67324716e-01, 1.45320043e-01,
          4.11389805e-02, 1.90135136e-01, 2.29198456e-01, 2.67324716e-01,
          2.66567111e-01, 2.67324716e-01, 1.79866388e-01, 2.03522667e-01,
          7.22516552e-02, 4.53671701e-02, 2.05060303e-01, 1.95687249e-01,
          2.75936037e-01, 9.51532722e-02, 2.37832725e-01, 2.32490778e-01,
          1.25839666e-01, 8.34471136e-02, 9.89144947e-03, 4.71278839e-02,
          8.44351724e-02, 2.19432637e-01, 3.54596861e-02, 5.46713173e-02,
          7.34972283e-02, 1.20913863e-01, 1.33337140e-01, 6.82016388e-02,
          2.75936037e-01, 2.75936037e-01, 2.75936037e-01, 1.49767503e-01,
          2.75936037e-01, 2.19847068e-01, 1.33650109e-01, 1.15755528e-01,
          6.26418367e-02, 1.25142843e-01, 1.86532527e-01, 2.75936037e-01,
          6.64283112e-02, 1.49057150e-01, 7.60124400e-02, 1.31138191e-01,
          1.48783863e-01, 1.34725794e-02, 7.85138737e-03, 2.95772869e-02,
          2.21195996e-01, 1.31204858e-01, 2.72206236e-02, 6.10383861e-02,
          2.39088163e-01, 1.46394879e-01, 9.59887654e-02, 1.43055141e-01,
          2.40660027e-01, 2.18442604e-01, 2.40660027e-01, 2.40660027e-01,
          1.47135675e-01, 1.58076957e-01, 2.17118666e-01, 1.27940908e-01,
          8.50242674e-02, 7.96999261e-02, 2.40660027e-01, 1.28738746e-01,
          1.73856262e-02, 3.20506766e-02, 2.40660027e-01, 1.77006632e-01,
          1.71990067e-01, 1.67607427e-01, 2.00402230e-01, 2.40660027e-01,
          2.31378824e-01, 1.10166468e-01, 7.64913484e-02, 2.40660027e-01,
          1.21381678e-01, 1.01010442e-01, 2.27464288e-01, 2.50748843e-01,
          1.96182624e-01, 1.17166519e-01, 1.68110698e-01, 6.85007498e-02,
          4.24962007e-02, 8.37660581e-02, 8.51602405e-02, 2.64559656e-01,
          2.64559656e-01, 2.64559656e-01, 6.13443404e-02, 4.14384007e-02,
          2.95744836e-02, 3.55527289e-02, 5.19126877e-02, 1.13422893e-01,
          2.00119212e-01, 2.54149318e-01, 2.64559656e-01, 2.08191171e-01,
          1.27658099e-01, 6.74778298e-02, 5.42254820e-02, 3.00097261e-02,
          1.43470019e-01, 2.64559656e-01, 2.64559656e-01, 2.64559656e-01,
          1.90414265e-01, 9.75126252e-02, 5.24719357e-02, 4.07665782e-02,
          1.94231607e-02, 4.78195809e-02, 2.50214607e-01, 3.08950663e-01,
          4.39623564e-01, 3.92298549e-02, 3.23648914e-03, 8.17154720e-03,
          1.08018108e-02, 3.52720870e-03, 8.88081454e-03, 1.45648429e-02,
          2.77611669e-02, 4.39623564e-01, 1.35437539e-02, 6.80717698e-04,
          1.04884803e-03, 1.06140599e-03, 1.63348280e-02, 6.17290549e-02,
          1.39165729e-01, 1.54291764e-01, 4.39623564e-01, 9.20565873e-02,
          2.11125985e-02, 2.16263663e-02, 1.91171393e-02, 4.60733986e-03,
          5.35224145e-03, 5.82791539e-03, 8.49732757e-03, 4.39623564e-01,
          4.04647328e-02, 3.45798879e-04, 2.78538023e-03, 3.62674426e-03,
          0., 0., 0., 0., 7.04615593e-01, 0., 0., 0., 0., 0., 0., 0., 0.,
          0., 0., 0., 0., 0., 0., 0., 0., 0., 7.04615593e-01, 0., 0., 0.,
          0., 0., 0., 0., 0., 0., 0., 0., 0., 0., 0., 0., 0., 0., 0., 0.,
          0., 0., 0., 0., 0., 0., 0., 0., 0., 0., 0., 0., 0., 0., 0., 0.,
          0., 0., 0., 0., 0., 0., 0., 0., 0., 0., 0., 0., 0., 0., 0., 0.,
          0., 0., 0., 0., 0., 0., 0., 0., 0., 0., 0., 0., 0., 0., 0., 0.,
          0., 0., 0., 0., 0., 0., 0., 0., 0., 0., 0., 0., 0., 0., 0., 0.,
          0., 0., 0., 0., 0., 0., 0., 0., 0., 0., 0., 0., 0., 0., 0., 0.,
          0., 0., 0., 0., 0., 0., 0., 0., 0., 0., 0., 0., 0., 0., 0., 0.,
          0., 0., 0., 0., 0., 0., 0., 0., 0., 0., 0., 0., 0., 0., 0., 0.,
          0., 0., 0., 0., 0., 0., 0., 0., 0., 0., 0., 0., 0., 0., 0., 0.,
          0., 0., 0., 0., 0., 0., 0., 0., 0., 0., 0., 0., 0., 0., 0., 0.,
          0., 0., 0., 0., 0., 0., 0., 0., 0., 0., 0., 0., 0., 0., 0., 0.,
          0., 0., 0., 0., 0., 0., 0., 0., 0., 0., 0., 0., 0., 0., 0., 0.,
          0., 0., 0., 0., 0., 0., 0., 0., 0., 0., 0., 0., 0., 0., 0., 0.,
          0., 0., 0., 0., 0., 0., 0., 0., 0., 0., 0., 0., 0., 0., 0., 0.,
          0., 0., 0., 0., 0., 0., 0., 0., 0., 0., 0., 0., 0., 0., 0.,
          9.59662616e-01, 0., 0., 0., 0., 0., 0., 0., 0., 0., 0., 0., 0.,
          0., 0., 0., 0., 0., 2.63578862e-01, 0., 0., 0., 0.,
          1.63842514e-02, 9.55623388e-03, 1.24359773e-02, 5.78447059e-02,
          2.66744941e-01, 4.75108884e-02, 8.77443030e-02, 9.53867063e-02,
          8.14296752e-02, 1.26091138e-01, 8.00048113e-02, 5.22473939e-02,
          1.91182420e-01, 2.76228935e-01, 1.30524293e-01, 2.45941103e-01,
          2.73540229e-01, 2.66482472e-01, 1.32708671e-02, 4.57203239e-02,
          2.59294361e-02, 2.45659109e-02, 1.66061878e-01, 3.47058512e-02,
          9.88777801e-02, 1.27362251e-01, 7.89868012e-02, 2.02315211e-01,
          2.76228935e-01, 8.93188789e-02, 1.30011022e-01, 2.76228935e-01,
          1.73231661e-01, 2.76228935e-01, 2.76228935e-01, 2.64018625e-01,
          1.39546499e-01, 5.90439253e-02, 3.13325152e-02, 9.64630544e-02,
          2.98470706e-01, 7.24770203e-02, 1.03434652e-01, 1.09136224e-01,
          1.62809148e-01, 1.84129700e-01, 2.24318989e-02, 5.60861779e-03,
          2.66050193e-02, 2.98470706e-01, 2.02886127e-02, 1.15765436e-02,
          1.85634103e-02, 2.01654270e-01, 2.98470706e-01, 1.82191491e-01,
          4.70268838e-02, 9.55172032e-02, 2.98470706e-01, 1.48383915e-01,
          2.20316768e-01, 1.20895013e-01, 2.73055792e-01, 2.98470706e-01,
          2.69956738e-02, 1.48382271e-02, 4.19540405e-02, 2.98470706e-01,
          3.22453268e-02, 2.65146028e-02, 1.98715944e-02, 2.98470706e-01,
          1.83236867e-01, 4.04272303e-02, 1.51423505e-02, 1.83570459e-02,
          2.78933525e-01, 7.55556449e-02, 1.90679133e-02, 4.93078008e-02,
          2.45964840e-01, 2.48787954e-01, 6.90826029e-02, 8.74996334e-02,
          1.08591065e-01, 2.78933525e-01, 2.72757679e-01, 2.78933525e-01,
          1.40383065e-01, 2.65371740e-01, 1.77240998e-01, 4.62673008e-02,
          3.00445817e-02, 2.09892653e-02, 2.78933525e-01, 2.45973412e-02,
          2.52597425e-02, 2.73149367e-02, 1.64122671e-01, 1.59391403e-01,
          9.17036161e-02, 7.39113167e-02, 4.61868122e-02, 2.78933525e-01,
          2.41678342e-01, 2.50202000e-01, 5.75338416e-02, 1.52372777e-01,
          2.00336635e-01, 8.23788792e-02, 1.25465810e-01, 1.28447354e-01,
          2.87699401e-01, 1.67432964e-01, 2.87699401e-01, 1.22001290e-01,
          1.79704517e-01, 1.26957387e-01, 9.94211063e-02, 1.08751126e-01,
          1.32443756e-01, 2.87699401e-01, 7.27887675e-02, 1.58290416e-01,
          6.75272569e-02, 1.48139596e-01, 1.15379572e-01, 7.64090121e-02,
          7.14793280e-02, 4.90887314e-02, 2.87699401e-01, 2.62476087e-01,
          2.87699401e-01, 5.63260652e-02, 1.22163862e-01, 1.57199994e-01,
          7.64641687e-02, 6.31621629e-02, 9.84026194e-02, 2.87699401e-01,
          1.32813409e-01, 1.55360982e-01, 5.39384037e-02, 1.76971272e-01,
          1.97862506e-01, 1.60963789e-01, 1.17533870e-01, 1.23779051e-01,
          2.54056692e-01, 1.23337328e-01, 4.05568108e-02, 4.69095558e-02,
          2.54056692e-01, 1.64978012e-01, 1.68492541e-01, 1.68088779e-01,
          1.97441697e-01, 2.54056692e-01, 1.66776121e-01, 7.87605345e-02,
          4.50292416e-02, 2.51042098e-01, 1.77246511e-01, 1.29459992e-01,
          8.63376558e-02, 1.31403938e-01, 2.54056692e-01, 1.27248675e-01,
          1.10513732e-01, 5.89242615e-02, 2.11722523e-01, 9.23436880e-02,
          1.65683672e-01, 2.50084907e-01, 2.54056692e-01, 2.54056692e-01,
          1.06515698e-01, 5.98031655e-02, 6.87017292e-02, 8.52313265e-02,
          2.28210483e-02, 8.05116817e-02, 1.36888504e-01, 2.76583880e-01,
          2.78412551e-01, 2.21150085e-01, 1.12551220e-01, 4.29769978e-02,
          3.21764201e-02, 2.87115388e-03, 8.11724663e-02, 1.60092577e-01,
          2.39588559e-01, 2.78412551e-01, 2.36256883e-01, 1.27033785e-01,
          5.12793511e-02, 9.90740489e-03, 6.05208501e-02, 1.35642797e-01,
          2.67438620e-01, 2.78412551e-01, 2.78412551e-01, 7.67466426e-02,
          6.72320724e-02, 1.07007027e-01, 1.08574005e-02, 5.63837066e-02,
          1.26263693e-01, 2.01698631e-01, 2.78412551e-01, 2.78412551e-01,
          7.28124231e-02, 7.26065487e-02, 1.22902960e-01, 8.97891819e-03,
          6.42200653e-03, 3.12705934e-02, 5.53986840e-02, 6.04512207e-02,
          4.89385337e-01, 9.06015188e-02, 4.44989055e-02, 2.39623897e-02,
          6.75983494e-03, 2.43964349e-03, 2.32424121e-03, 3.02089541e-03,
          1.18237045e-02, 4.89385337e-01, 2.52905861e-02, 2.25791591e-03,
          2.27074628e-03, 1.71111571e-03, 1.22676035e-02, 3.28824483e-02,
          6.46635219e-02, 8.60889181e-02, 4.89385337e-01, 4.27560396e-02,
          2.58517265e-02, 4.27104570e-02, 1.04754372e-02, 1.01250550e-03,
          1.14049448e-03, 4.91743302e-03, 1.46964304e-02, 4.89385337e-01,
          1.53617235e-02, 2.18812795e-03, 3.62592167e-03, 2.21390394e-03,
          0., 0., 0., 0., 7.04615593e-01, 0., 0., 0., 0., 0., 0., 0., 0.,
          0., 0., 0., 0., 0., 0., 0., 0., 0., 7.04615593e-01, 0., 0., 0.,
          0., 0., 0., 0., 0., 0., 0., 0., 0., 0., 0., 0., 0., 0., 0., 0.,
          0., 0., 0., 0., 0., 0., 0., 0., 0., 0., 0., 0., 0., 0., 0., 0.,
          0., 0., 0., 0., 0., 0., 0., 0., 0., 0., 0., 0., 0., 0., 0., 0.,
          0., 0., 0., 0., 0., 0., 0., 0., 0., 0., 0., 0., 0., 0., 0., 0.,
          0., 0., 0., 0., 0., 0., 0., 0., 0., 0., 0., 0., 0., 0., 0., 0.,
          0., 0., 0., 0., 0., 0., 0., 0., 0., 0., 0., 0., 0., 0., 0., 0.,
          0., 0., 0., 0., 0., 0., 0., 0., 0., 0., 0., 0., 0., 0., 0., 0.,
          0., 0., 0., 0., 0., 0., 0., 0., 0., 0., 0., 0., 0., 0., 0., 0.,
          0., 0., 0., 0., 0., 0., 0., 0., 0., 0., 0., 0., 0., 0., 0., 0.,
          0., 0., 0., 0., 0., 0., 0., 0., 0., 0., 0., 0., 0., 0., 0., 0.,
          0., 0., 0., 0., 0., 0., 0., 0., 0., 0., 0., 0., 0., 0., 0., 0.,
          0., 0., 0., 0., 0., 0., 0., 0., 0., 0., 0., 0., 0., 0., 0., 0.,
          0., 0., 0., 0., 0., 0., 0., 0., 0., 0., 0., 0., 0., 0., 0., 0.,
          0., 0., 0., 0., 0., 0., 0., 0., 0., 0., 0., 0., 0., 0., 0., 0.,
          0., 0., 0., 0., 0., 0., 0., 0., 0., 0., 0., 0., 0., 0., 0.,
          4.62559760e-01, 0., 0., 0., 0., 0., 0., 0., 0., 0., 0., 0., 0.,
          0., 0., 0., 0., 0., 8.81613195e-01, 0., 0., 0., 0.,
          2.64249723e-02, 3.88733000e-02, 3.13583501e-02, 5.04347980e-02,
          1.63888216e-01, 2.02682782e-02, 6.13429062e-02, 4.73725572e-02,
          2.43948326e-02, 2.71809876e-01, 2.71809876e-01, 1.27732083e-01,
          1.77361071e-01, 2.71809876e-01, 1.98510140e-01, 2.71809876e-01,
          2.11605743e-01, 2.20734879e-01, 2.68708877e-02, 2.21673567e-02,
          2.72695906e-02, 4.49497923e-02, 2.24102601e-01, 3.84564735e-02,
          1.79218072e-02, 3.03175654e-02, 1.14864474e-02, 2.62210995e-01,
          1.72578201e-01, 1.14359960e-01, 1.28624558e-01, 2.71809876e-01,
          1.81303769e-01, 2.71809876e-01, 2.71809876e-01, 2.04325899e-01,
          2.18970090e-01, 1.61296174e-01, 7.45324418e-02, 6.93573579e-02,
          2.67353147e-01, 1.70764297e-01, 2.58194178e-01, 1.37035653e-01,
          1.97314233e-01, 1.10615686e-01, 2.57775765e-02, 2.21959520e-02,
          1.27047021e-02, 1.73176780e-01, 5.13634086e-02, 6.08156435e-02,
          4.51719612e-02, 1.10123292e-01, 1.54870078e-01, 1.30508557e-01,
          7.55005777e-02, 4.83034998e-02, 2.13140741e-01, 2.43826687e-01,
          2.78120875e-01, 2.78120875e-01, 2.22053275e-01, 6.78497329e-02,
          5.20621650e-02, 1.90889817e-02, 2.23202445e-02, 1.33677691e-01,
          1.75316095e-01, 2.78120875e-01, 2.78120875e-01, 2.33242571e-01,
          1.52018189e-01, 1.56543497e-02, 1.49532035e-02, 1.20760482e-02,
          2.15971261e-01, 1.26787536e-02, 1.26851825e-02, 1.73318908e-02,
          1.51121825e-01, 2.72822410e-01, 6.16753735e-02, 3.69599126e-02,
          4.12927456e-02, 3.03505689e-01, 1.05195068e-01, 7.19306096e-02,
          2.74968687e-02, 3.03037316e-01, 2.30466336e-01, 2.09182519e-02,
          1.16828131e-02, 6.04684316e-02, 2.46978685e-01, 9.84212756e-02,
          2.59059638e-01, 2.12016866e-01, 3.03505689e-01, 3.03505689e-01,
          1.95135716e-02, 1.60831735e-02, 5.30230030e-02, 3.03505689e-01,
          6.29599914e-02, 5.88643700e-02, 3.81209105e-02, 3.03505689e-01,
          1.22556351e-01, 5.14913909e-02, 1.45719126e-02, 3.25691625e-02,
          3.34520787e-01, 1.55554086e-01, 9.44465324e-02, 3.78655605e-02,
          2.05337957e-01, 2.14453712e-01, 8.16022158e-02, 2.69750394e-02,
          1.27242908e-01, 3.34520787e-01, 1.12352863e-01, 2.29494989e-01,
          9.34477746e-02, 2.27212057e-01, 1.71590090e-01, 1.80907566e-02,
          7.96101335e-03, 3.00895628e-02, 3.34520787e-01, 4.55716178e-02,
          4.46727984e-02, 2.18353588e-02, 2.26640224e-01, 2.17963472e-01,
          5.61696216e-02, 7.56304562e-02, 9.50610936e-02, 3.34520787e-01,
          4.93028499e-02, 1.79590166e-01, 7.01007098e-02, 2.57863939e-01,
          1.22777231e-01, 7.59264529e-02, 5.23647554e-02, 1.17861435e-01,
          2.28276804e-01, 6.28315210e-02, 1.97565421e-01, 9.91902649e-02,
          1.18853278e-01, 7.32033327e-02, 2.11554021e-01, 2.90404648e-01,
          1.84672788e-01, 2.65992463e-01, 5.29837571e-02, 8.10306370e-02,
          1.21378280e-01, 5.18920384e-02, 1.19686626e-01, 1.83815166e-01,
          2.37341434e-01, 8.90907571e-02, 1.96898535e-01, 3.64318416e-02,
          1.93213955e-01, 1.15838110e-01, 1.19425431e-01, 1.71496004e-01,
          2.90404648e-01, 2.90404648e-01, 2.22809598e-01, 2.42433161e-01,
          4.51212712e-02, 1.35727748e-01, 1.59965739e-01, 6.65715039e-02,
          1.67160317e-01, 2.56893963e-01, 2.75118947e-01, 2.12223962e-01,
          2.75118947e-01, 4.96375598e-02, 5.41198477e-02, 1.71729490e-01,
          4.34892364e-02, 1.44911453e-01, 1.52310014e-01, 1.76578686e-01,
          1.46975651e-01, 2.75118947e-01, 4.75389585e-02, 4.84894179e-02,
          1.93038791e-01, 6.02620915e-02, 2.32636631e-01, 2.75118947e-01,
          2.75118947e-01, 1.98691264e-01, 2.75118947e-01, 6.20069057e-02,
          5.39785884e-02, 1.05594970e-01, 7.03192353e-02, 1.14280857e-01,
          7.03949332e-02, 9.20733809e-02, 7.19192550e-02, 2.33210266e-01,
          6.60494640e-02, 3.40145342e-02, 1.00513339e-01, 8.21223482e-02,
          2.34803390e-02, 2.96660438e-02, 3.19816098e-02, 1.10513926e-01,
          4.76557225e-01, 2.57545635e-02, 2.70680320e-02, 1.19020604e-01,
          5.98437861e-02, 1.23720209e-03, 7.38107250e-04, 2.89125647e-03,
          5.87744340e-02, 4.76557225e-01, 7.97431823e-03, 5.90982428e-03,
          1.84958559e-02, 8.33209231e-03, 1.52896531e-02, 7.09330617e-03,
          1.11024883e-02, 1.32544503e-01, 4.76557225e-01, 4.55949716e-02,
          3.85436937e-02, 1.06815830e-01, 7.37397224e-02, 1.20668532e-03,
          5.91220160e-04, 1.09116430e-03, 9.86416861e-02, 4.76557225e-01,
          1.00962352e-02, 1.04977908e-02, 2.52347998e-02, 7.63374288e-03,
          0., 0., 0., 0., 7.04615593e-01, 0., 0., 0., 0., 0., 0., 0., 0.,
          0., 0., 0., 0., 0., 0., 0., 0., 0., 7.04615593e-01, 0., 0., 0.,
          0., 0., 0., 0., 0., 0., 0., 0., 0., 0., 0., 0., 0., 0., 0., 0.,
          0., 0., 0., 0., 0., 0., 0., 0., 0., 0., 0., 0., 0., 0., 0., 0.,
          0., 0., 0., 0., 0., 0., 0., 0., 0., 0., 0., 0., 0., 0., 0., 0.,
          0., 0., 0., 0., 0., 0., 0., 0., 0., 0., 0., 0., 0., 0., 0., 0.,
          0., 0., 0., 0., 0., 0., 0., 0., 0., 0., 0., 0., 0., 0., 0., 0.,
          0., 0., 0., 0., 0., 0., 0., 0., 0., 0., 0., 0., 0., 0., 0., 0.,
          0., 0., 0., 0., 0., 0., 0., 0., 0., 0., 0., 0., 0., 0., 0., 0.,
          0., 0., 0., 0., 0., 0., 0., 0., 0., 0., 0., 0., 0., 0., 0., 0.,
          0., 0., 0., 0., 0., 0., 0., 0., 0., 0., 0., 0., 0., 0., 0., 0.,
          0., 0., 0., 0., 0., 0., 0., 0., 0., 0., 0., 0., 0., 0., 0., 0.,
          0., 0., 0., 0., 0., 0., 0., 0., 0., 0., 0., 0., 0., 0., 0., 0.,
          0., 0., 0., 0., 0., 0., 0., 0., 0., 0., 0., 0., 0., 0., 0., 0.,
          0., 0., 0., 0., 0., 0., 0., 0., 0., 0., 0., 0., 0., 0., 0., 0.,
          0., 0., 0., 0., 0., 0., 0., 0., 0., 0., 0., 0., 0., 0., 0., 0.,
          0., 0., 0., 0., 0., 0., 0., 0., 0., 0., 0., 0., 0., 0., 0.,
          8.29673946e-01, 0., 0., 0., 0., 0., 0., 0., 0., 0., 0., 0., 0.,
          0., 0., 0., 0., 0., 5.50782561e-01, 0., 0., 0., 0.,
          2.29308475e-02, 1.90275945e-02, 2.69113332e-02, 1.86965503e-02,
          3.42595041e-01, 1.23966388e-01, 5.37923500e-02, 9.08837765e-02,
          2.94165034e-02, 2.15856895e-01, 7.09785447e-02, 7.32503235e-02,
          5.45814708e-02, 3.42595041e-01, 2.44734257e-01, 3.42595041e-01,
          3.42595041e-01, 3.19228917e-01, 9.12539661e-03, 7.88386969e-04,
          9.15293174e-04, 4.44009143e-04, 3.20003480e-01, 9.11609605e-02,
          1.85136702e-02, 2.62673888e-02, 1.09617608e-02, 7.38368407e-02,
          1.03595313e-02, 7.03828922e-03, 1.92403991e-03, 3.06033105e-01,
          1.30664065e-01, 1.26902640e-01, 1.40940353e-01, 1.08185045e-01,
          7.31084719e-02, 4.74444926e-02, 1.21639809e-02, 1.89422946e-02,
          1.06722206e-01, 8.50086883e-02, 3.01775753e-01, 3.01775753e-01,
          1.68602869e-01, 1.32910490e-01, 1.64846703e-01, 1.56719945e-02,
          1.21260814e-01, 2.26033270e-01, 9.12510157e-02, 3.01775753e-01,
          3.01775753e-01, 3.01775753e-01, 3.80098075e-02, 2.64021344e-02,
          2.37540598e-03, 1.25703812e-02, 2.07620785e-02, 9.07278806e-03,
          1.55726030e-01, 8.51185769e-02, 8.68317708e-02, 1.55193359e-01,
          1.76082984e-01, 2.79677510e-02, 1.54707536e-01, 2.03212842e-01,
          1.10680778e-02, 3.01775753e-01, 2.32459217e-01, 2.43112624e-01,
          2.04553798e-01, 8.88776928e-02, 1.85033251e-02, 9.08238366e-02,
          1.72028184e-01, 4.55413349e-02, 2.68391460e-01, 1.86987177e-01,
          2.68391460e-01, 2.68391460e-01, 4.87236865e-02, 1.16631761e-02,
          3.13309357e-02, 1.53938189e-01, 2.77075768e-02, 1.62564725e-01,
          4.40112129e-02, 2.68391460e-01, 2.68391460e-01, 1.36149928e-01,
          3.17946337e-02, 1.17003679e-01, 2.02108860e-01, 1.99395679e-02,
          2.68391460e-01, 1.09663017e-01, 2.55233496e-01, 2.68391460e-01,
          1.22551896e-01, 1.82842929e-02, 3.70692089e-02, 8.72152001e-02,
          1.49884271e-02, 2.36589044e-01, 8.70326757e-02, 2.68391460e-01,
          2.88740605e-01, 2.88469195e-02, 4.69305664e-02, 1.28837619e-02,
          2.20256388e-01, 1.00075081e-02, 2.33632643e-02, 1.74480584e-02,
          2.88740605e-01, 2.88376361e-01, 9.07363892e-02, 2.85675853e-01,
          5.21216989e-02, 1.75211772e-01, 1.50079988e-02, 2.23821048e-02,
          2.76976954e-02, 2.88740605e-01, 2.88740605e-01, 1.11061379e-01,
          7.57069290e-02, 1.03013841e-02, 1.30279763e-02, 3.28621524e-03,
          5.22394180e-02, 9.24322084e-02, 2.88740605e-01, 2.88740605e-01,
          1.45525619e-01, 2.88740605e-01, 1.09611422e-01, 2.31790040e-02,
          1.28275733e-02, 6.84813643e-03, 7.74671733e-02, 2.88740605e-01,
          2.22023651e-01, 2.69248366e-01, 2.71511257e-01, 8.86605009e-02,
          4.52886075e-02, 1.25015732e-02, 3.78876776e-02, 2.75060516e-02,
          1.43779472e-01, 1.78400800e-01, 2.71511257e-01, 2.71511257e-01,
          1.75476819e-01, 1.99286073e-01, 4.03784290e-02, 4.87400666e-02,
          3.11550144e-02, 4.00407836e-02, 2.71511257e-01, 1.95787132e-01,
          2.71511257e-01, 1.44446328e-01, 4.07677144e-02, 1.38270296e-02,
          1.52314408e-02, 2.92846002e-02, 1.79532498e-01, 1.38089970e-01,
          1.92734778e-01, 2.71511257e-01, 2.41161898e-01, 2.71511257e-01,
          6.57173768e-02, 4.36465666e-02, 2.17830781e-02, 4.66662608e-02,
          1.78566813e-01, 2.92511404e-01, 2.92511404e-01, 2.92511404e-01,
          2.92511404e-01, 1.14942886e-01, 6.25232682e-02, 3.16380523e-02,
          3.33252549e-02, 4.88998033e-02, 4.55785245e-02, 6.44555986e-02,
          9.10260007e-02, 2.81225264e-01, 7.46016428e-02, 4.39144932e-02,
          2.95755044e-02, 3.64122652e-02, 3.96961011e-02, 1.18194245e-01,
          2.65950769e-01, 2.92511404e-01, 2.92511404e-01, 1.82371289e-01,
          2.15490639e-01, 9.82978791e-02, 3.17683965e-02, 1.80678423e-02,
          2.09804289e-02, 4.48712856e-02, 6.68334141e-02, 2.45444700e-01,
          7.87851140e-02, 2.52651572e-01, 1.11690789e-01, 1.55781964e-02,
